{"learner":{"attributes":{"scikit_learn":"{\"use_label_encoder\": true, \"n_estimators\": 100, \"objective\": \"binary:logistic\", \"max_depth\": null, \"learning_rate\": null, \"verbosity\": null, \"booster\": null, \"tree_method\": null, \"gamma\": null, \"min_child_weight\": null, \"max_delta_step\": null, \"subsample\": null, \"colsample_bytree\": null, \"colsample_bylevel\": null, \"colsample_bynode\": null, \"reg_alpha\": null, \"reg_lambda\": null, \"scale_pos_weight\": null, \"base_score\": null, \"missing\": NaN, \"num_parallel_tree\": null, \"kwargs\": {}, \"random_state\": null, \"n_jobs\": null, \"monotone_constraints\": null, \"interaction_constraints\": null, \"importance_type\": \"gain\", \"gpu_id\": null, \"validate_parameters\": null, \"classes_\": [0, 1], \"n_classes_\": 2, \"_le\": {\"classes_\": [0, 1]}, \"_features_count\": 2, \"n_features_in_\": 2, \"type\": \"XGBClassifier\"}"},"gradient_booster":{"model":{"gbtree_model_param":{"num_trees":"100","size_leaf_vector":"0"},"tree_info":[0,0,0,0,0,0,0,0,0,0,0,0,0,0,0,0,0,0,0,0,0,0,0,0,0,0,0,0,0,0,0,0,0,0,0,0,0,0,0,0,0,0,0,0,0,0,0,0,0,0,0,0,0,0,0,0,0,0,0,0,0,0,0,0,0,0,0,0,0,0,0,0,0,0,0,0,0,0,0,0,0,0,0,0,0,0,0,0,0,0,0,0,0,0,0,0,0,0,0,0],"trees":[{"base_weights":[-1.4073168E0,-1.0040952E0,-1.7738708E0,-1.991623E0,-8.949254E-1,-1.5740832E0,-1.8979665E0,-1.8369669E0,-8.548711E-1,-1.9930216E0,-1.4443011E0,-1.9032755E0,3.6734694E-1,-1.9176755E0,-1.5193133E0,-6.4868677E-1,-1.071023E0,-1.3095723E0,-1.5416666E0,-1.9983865E0,-1.8702837E0,1.0526316E0,-1.4666667E0,-7.692308E-1,-1.5829384E0,-4.8982912E-1,-9.769009E-1,-1.0479885E0,-1.9731543E0,-1.2886083E0,-1.8778626E0,-1.3885505E0,-1.6072767E0,-1.8057818E0,-1.9182291E0,5E-1,1.5555556E0,-1.8181819E-1,-9.4736844E-1,-2.6846704E-1,-5.810478E-1,-9.1364336E-1,-1.9674797E0,-9.5361567E-1,-1.1803212E0,-1.5555556E0,-1.2536961E0,-1.6704545E0,-1.3075734E0,-1.6099652E0,2.2222222E-1,-1.7191087E0,-1.8311037E0,1.5294118E0,-1.2727273E0],"categories":[],"categories_nodes":[],"categories_segments":[],"categories_sizes":[],"default_left":[true,true,true,false,true,true,true,true,true,false,true,true,true,false,true,true,true,true,true,false,true,true,false,true,false,true,true,true,false,true,false,true,true,true,false,true,false,false,false,false,false,false,false,false,false,false,false,false,false,false,false,false,false,false,false],"id":0,"left_children":[1,3,5,-1,7,9,11,13,15,-1,17,19,21,-1,23,25,27,29,31,-1,33,35,-1,37,-1,39,41,43,-1,45,-1,47,49,51,-1,53,-1,-1,-1,-1,-1,-1,-1,-1,-1,-1,-1,-1,-1,-1,-1,-1,-1,-1,-1],"loss_changes":[2.2334004E3,7.7481445E2,1.9337695E2,0E0,2.4324951E2,1.6243604E2,5.9396484E1,3.8483276E0,2.767578E2,0E0,2.8480469E1,1.1542969E1,1.6939922E1,0E0,1.5622864E0,1.6578076E2,6.1056885E1,9.279297E0,1.127002E1,0E0,7.7646484E0,1.8625736E0,0E0,5.079131E-1,0E0,4.3272705E1,6.33078E1,3.58938E1,0E0,6.906006E0,0E0,7.1865845E0,4.9543457E0,2.8710938E-1,0E0,1.2895721E1,0E0,0E0,0E0,0E0,0E0,0E0,0E0,0E0,0E0,0E0,0E0,0E0,0E0,0E0,0E0,0E0,0E0,0E0,0E0],"parents":[2147483647,0,0,1,1,2,2,4,4,5,5,6,6,7,7,8,8,10,10,11,11,12,12,14,14,15,15,16,16,17,17,18,18,20,20,21,21,23,23,25,25,26,26,27,27,29,29,31,31,32,32,33,33,35,35],"right_children":[2,4,6,-1,8,10,12,14,16,-1,18,20,22,-1,24,26,28,30,32,-1,34,36,-1,38,-1,40,42,44,-1,46,-1,48,50,52,-1,54,-1,-1,-1,-1,-1,-1,-1,-1,-1,-1,-1,-1,-1,-1,-1,-1,-1,-1,-1],"split_conditions":[9.3364E4,4.7E2,2.15434E5,-5.974869E-1,2.722E3,5.14E2,1.840958E6,2.102E3,4.0818E4,-5.9790653E-1,1.2489E5,4.82E2,1.862232E6,-5.7530266E-1,2.192E3,6.54E2,1.026E3,9.58E2,6.26E2,-5.99516E-1,4.63778E5,1.853692E6,-4.4000003E-1,5.3E2,-4.7488156E-1,1.3654E4,1.008E3,6.5E2,-5.919463E-1,5.7E2,-5.633588E-1,5.66E2,2.1521E5,2.5471E5,-5.754688E-1,1.84884E6,4.666667E-1,-5.454546E-2,-2.8421053E-1,-8.054011E-2,-1.7431433E-1,-2.7409303E-1,-5.9024394E-1,-2.860847E-1,-3.5409638E-1,-4.666667E-1,-3.7610886E-1,-5.0113636E-1,-3.9227206E-1,-4.8298958E-1,6.666667E-2,-5.1573265E-1,-5.493311E-1,4.5882356E-1,-3.818182E-1],"split_indices":[1,0,1,0,1,0,1,1,1,0,1,0,1,0,1,0,0,0,0,0,1,1,0,0,0,1,0,0,0,0,0,0,1,1,0,1,0,0,0,0,0,0,0,0,0,0,0,0,0,0,0,0,0,0,0],"split_type":[0,0,0,0,0,0,0,0,0,0,0,0,0,0,0,0,0,0,0,0,0,0,0,0,0,0,0,0,0,0,0,0,0,0,0,0,0,0,0,0,0,0,0,0,0,0,0,0,0,0,0,0,0,0,0],"sum_hessian":[1.512175E4,7.2025E3,7.91925E3,7.1525E2,6.48725E3,3.0395E3,4.87975E3,2.6275E2,6.2245E3,7.155E2,2.324E3,4.8685E3,1.125E1,2.055E2,5.725E1,3.18775E3,3.03675E3,9.81E2,1.343E3,1.2385E3,3.63E3,8.5E0,2.75E0,5.5E0,5.175E1,2.14975E3,1.038E3,2.96325E3,7.35E1,9.4925E2,3.175E1,4.095E2,9.335E2,1.56425E3,2.06575E3,5E0,3.5E0,1.75E0,3.75E0,6.285E2,1.52125E3,9.775E2,6.05E1,1.7345E3,1.22875E3,1.0475E2,8.445E2,8.7E1,3.225E2,9.3225E2,1.25E0,3.6925E2,1.195E3,3.25E0,1.75E0],"tree_param":{"num_deleted":"0","num_feature":"2","num_nodes":"55","size_leaf_vector":"0"}},{"base_weights":[-1.0453467E0,-7.2694445E-1,-1.347785E0,-1.5478013E0,-6.4319813E-1,-1.1763264E0,-1.4562708E0,-1.3747457E0,-6.102355E-1,-1.5430033E0,-1.0673449E0,-1.460463E0,2.802067E-1,-1.5134782E0,-1.1854943E0,-4.5721468E-1,-7.776833E-1,-9.594614E-1,-1.1469667E0,-1.5437561E0,-1.4289868E0,8.3513874E-1,-1.1900182E0,-1.1167943E0,-1.5284911E0,-3.4230578E-1,-6.9832754E-1,-7.596507E-1,-1.5300816E0,-9.420912E-1,-1.4517218E0,-1.0203391E0,-1.2021705E0,-1.3929371E0,-1.5134212E0,3.80185E-1,1.2501124E0,-1.186749E0,1.7122515E-1,-1.5751012E-1,-4.1391656E-1,-6.483388E-1,-1.5272193E0,-7.0761764E-1,-9.1191787E-1,-1.1619704E0,-9.139352E-1,-9.756291E-1,-1.5031803E0,-1.1842345E0,-1.5736322E0,-1.2914337E0,-1.4098966E0,-1.520927E0,-1.0393173E0,1.2324883E0,-1.0565835E0],"categories":[],"categories_nodes":[],"categories_segments":[],"categories_sizes":[],"default_left":[true,true,true,false,true,true,true,true,true,false,true,true,true,false,true,true,true,true,true,false,true,true,false,true,false,true,true,true,false,true,false,true,true,true,true,true,false,false,false,false,false,false,false,false,false,false,false,false,false,false,false,false,false,false,false,false,false],"id":1,"left_children":[1,3,5,-1,7,9,11,13,15,-1,17,19,21,-1,23,25,27,29,31,-1,33,35,-1,37,-1,39,41,43,-1,45,-1,47,49,51,53,55,-1,-1,-1,-1,-1,-1,-1,-1,-1,-1,-1,-1,-1,-1,-1,-1,-1,-1,-1,-1,-1],"loss_changes":[1.3842754E3,4.8088696E2,1.3549414E2,0E0,1.5258716E2,1.1279126E2,3.32666E1,5.38739E0,1.5569019E2,0E0,1.7890625E1,9.599609E0,1.0547523E1,0E0,1.128067E0,8.799188E1,3.827246E1,6.712097E0,7.6296387E0,0E0,7.879883E0,1.2406106E0,0E0,9.5694275E0,0E0,2.850122E1,4.1558685E1,2.1859741E1,0E0,4.606262E0,0E0,6.9796753E0,3.977295E0,2.1591797E0,1.8720703E0,8.371035E0,0E0,0E0,0E0,0E0,0E0,0E0,0E0,0E0,0E0,0E0,0E0,0E0,0E0,0E0,0E0,0E0,0E0,0E0,0E0,0E0,0E0],"parents":[2147483647,0,0,1,1,2,2,4,4,5,5,6,6,7,7,8,8,10,10,11,11,12,12,14,14,15,15,16,16,17,17,18,18,20,20,21,21,23,23,25,25,26,26,27,27,29,29,31,31,32,32,33,33,34,34,35,35],"right_children":[2,4,6,-1,8,10,12,14,16,-1,18,20,22,-1,24,26,28,30,32,-1,34,36,-1,38,-1,40,42,44,-1,46,-1,48,50,52,54,56,-1,-1,-1,-1,-1,-1,-1,-1,-1,-1,-1,-1,-1,-1,-1,-1,-1,-1,-1,-1,-1],"split_conditions":[9.3364E4,4.62E2,2.1469E5,-4.643404E-1,3.146E3,5.14E2,1.840958E6,1.68E3,4.152E4,-4.6290103E-1,1.2489E5,5.22E2,1.862232E6,-4.5404348E-1,2.906E3,6.54E2,1.026E3,9.58E2,6.26E2,-4.6312687E-1,7.34568E5,1.853692E6,-3.5700548E-1,2.866E3,-4.5854735E-1,1.361E4,1.008E3,7.06E2,-4.5902452E-1,5.7E2,-4.3551657E-1,2.06105E5,9.94E2,2.5471E5,1.79575E6,1.84884E6,3.7503374E-1,-3.560247E-1,5.1367547E-2,-4.725304E-2,-1.24174975E-1,-1.9450165E-1,-4.581658E-1,-2.122853E-1,-2.7357537E-1,-3.4859112E-1,-2.7418056E-1,-2.9268873E-1,-4.509541E-1,-3.5527036E-1,-4.7208968E-1,-3.8743013E-1,-4.22969E-1,-4.5627812E-1,-3.1179518E-1,3.697465E-1,-3.1697506E-1],"split_indices":[1,0,1,0,1,0,1,1,1,0,1,0,1,0,1,0,0,0,0,0,1,1,0,1,0,1,0,0,0,0,0,1,0,1,1,1,0,0,0,0,0,0,0,0,0,0,0,0,0,0,0,0,0,0,0,0,0],"split_type":[0,0,0,0,0,0,0,0,0,0,0,0,0,0,0,0,0,0,0,0,0,0,0,0,0,0,0,0,0,0,0,0,0,0,0,0,0,0,0,0,0,0,0,0,0,0,0,0,0,0,0,0,0,0,0,0,0],"sum_hessian":[1.4384239E4,7.0088423E3,7.375397E3,6.472458E2,6.3615967E3,2.862751E3,4.512646E3,2.725315E2,6.089065E3,6.528901E2,2.209861E3,4.501936E3,1.0709751E1,1.5321718E2,1.19314316E2,3.1835415E3,2.9055234E3,9.439311E2,1.2659299E3,1.2215123E3,3.2804238E3,8.088671E0,2.62108E0,1.0295009E2,1.636423E1,2.1576665E3,1.025875E3,2.8394797E3,6.604365E1,9.145727E2,2.9358349E1,3.902499E2,8.7568005E2,2.3111594E3,9.692644E2,4.7725177E0,3.3161533E0,9.772129E1,5.2287984E0,6.035001E2,1.5541664E3,9.6920636E2,5.666863E1,2.1205034E3,7.189765E2,9.9247734E1,8.15325E2,3.5994083E2,3.0309078E1,8.393409E2,3.6339188E1,3.4191907E2,1.9692404E3,9.5198486E2,1.7279493E1,3.0847805E0,1.6877375E0],"tree_param":{"num_deleted":"0","num_feature":"2","num_nodes":"57","size_leaf_vector":"0"}},{"base_weights":[-8.266976E-1,-5.8476424E-1,-1.1759609E0,-1.3396051E0,-5.077354E-1,-1.0186478E0,-1.2391517E0,-1.3439943E0,-8.90364E-1,-1.0954711E0,-4.829776E-1,-1.342609E0,-9.130542E-1,-1.2429289E0,2.2874668E-1,-3.1272873E-1,-1.0792581E0,-1.2634331E0,-8.621846E-1,-3.2518306E-1,-6.254706E-1,-8.027339E-1,-9.6265984E-1,-1.3441105E0,-1.2091537E0,7.083124E-1,-1.0183718E0,-9.3688405E-1,6.4981097E-1,-6.6652536E-1,-9.8184085E-1,-2.3757026E-1,-5.1376563E-1,-6.1070067E-1,-1.3350616E0,-7.535576E-1,-1.3059021E0,-9.453536E-1,-1.3422772E0,-1.171671E0,-1.2999746E0,3.067652E-1,1.0683895E0,-1.0779933E0,-4.9375045E-1,-1.4570067E0,-8.6410296E-1,-7.44688E-2,-2.956032E-1,-4.7115517E-1,-1.3250353E0,-5.6064963E-1,-7.20354E-1,-3.6957845E-1,-7.9966724E-1,-1.3650163E0,-4.5117226E-1,-9.8643696E-1,-7.8281087E-1,-1.0678288E0,-1.1882534E0,-1.3077205E0,-8.4119844E-1,1.0535935E0,-9.1065615E-1],"categories":[],"categories_nodes":[],"categories_segments":[],"categories_sizes":[],"default_left":[true,true,true,true,true,true,true,false,true,true,true,false,true,true,true,true,false,false,true,true,true,true,true,false,true,true,false,false,false,true,true,true,true,true,false,true,true,true,false,true,true,true,false,false,false,false,false,false,false,false,false,false,false,false,false,false,false,false,false,false,false,false,false,false,false],"id":2,"left_children":[1,3,5,7,9,11,13,-1,15,17,19,-1,21,23,25,27,-1,-1,29,31,33,35,37,-1,39,41,-1,-1,-1,43,45,47,49,51,-1,53,55,57,-1,59,61,63,-1,-1,-1,-1,-1,-1,-1,-1,-1,-1,-1,-1,-1,-1,-1,-1,-1,-1,-1,-1,-1,-1,-1],"loss_changes":[1.1015303E3,4.4750806E2,5.179248E1,2.0959473E-1,1.0127026E2,5.128662E1,2.1369629E1,0E0,7.386527E-1,9.960358E0,1.5078162E2,0E0,5.579956E0,1.1338379E1,7.0640306E0,2.914863E0,0E0,0E0,2.1829376E0,5.2559326E1,3.6155273E1,8.074478E0,3.9590454E0,0E0,8.192383E0,8.65036E-1,0E0,0E0,0E0,2.958641E0,2.8299713E0,2.0602165E1,3.4309937E1,1.8571411E1,0E0,5.65094E0,9.6207047E-1,4.3326416E0,0E0,2.227295E0,1.8304443E0,5.7809234E0,0E0,0E0,0E0,0E0,0E0,0E0,0E0,0E0,0E0,0E0,0E0,0E0,0E0,0E0,0E0,0E0,0E0,0E0,0E0,0E0,0E0,0E0,0E0],"parents":[2147483647,0,0,1,1,2,2,3,3,4,4,5,5,6,6,8,8,9,9,10,10,12,12,13,13,14,14,15,15,18,18,19,19,20,20,21,21,22,22,24,24,25,25,29,29,30,30,31,31,32,32,33,33,35,35,36,36,37,37,39,39,40,40,41,41],"right_children":[2,4,6,8,10,12,14,-1,16,18,20,-1,22,24,26,28,-1,-1,30,32,34,36,38,-1,40,42,-1,-1,-1,44,46,48,50,52,-1,54,56,58,-1,60,62,64,-1,-1,-1,-1,-1,-1,-1,-1,-1,-1,-1,-1,-1,-1,-1,-1,-1,-1,-1,-1,-1,-1,-1],"split_conditions":[1.2489E5,4.7E2,2.17086E5,4.62E2,3.666E3,5.14E2,1.840958E6,-4.031983E-1,3.5918E4,2.102E3,4.3162E4,-4.0278274E-1,6.26E2,4.82E2,1.862232E6,2.23E4,-3.2377744E-1,-3.7902996E-1,5.86E2,6.54E2,1.026E3,2.06683E5,9.94E2,-4.0323317E-1,7.34568E5,1.853692E6,-3.0551156E-1,-2.8106523E-1,1.949433E-1,5.38E2,6.1E2,1.361E4,1.008E3,8.785E4,-4.0051848E-1,1.32106E5,6.18E2,8.5E2,-4.0268317E-1,2.5471E5,1.79575E6,1.84884E6,3.2051688E-1,-3.23398E-1,-1.4812514E-1,-4.3710202E-1,-2.592309E-1,-2.234064E-2,-8.868096E-2,-1.4134656E-1,-3.9751062E-1,-1.6819489E-1,-2.1610622E-1,-1.1087354E-1,-2.3990019E-1,-4.0950492E-1,-1.3535169E-1,-2.959311E-1,-2.3484327E-1,-3.2034865E-1,-3.5647604E-1,-3.923162E-1,-2.5235954E-1,3.1607807E-1,-2.7319685E-1],"split_indices":[1,0,1,0,1,0,1,0,1,1,1,0,0,0,1,1,0,0,0,0,0,1,0,0,1,1,0,0,0,0,0,1,0,1,0,1,0,0,0,1,1,1,0,0,0,0,0,0,0,0,0,0,0,0,0,0,0,0,0,0,0,0,0,0,0],"split_type":[0,0,0,0,0,0,0,0,0,0,0,0,0,0,0,0,0,0,0,0,0,0,0,0,0,0,0,0,0,0,0,0,0,0,0,0,0,0,0,0,0,0,0,0,0,0,0,0,0,0,0,0,0,0,0,0,0,0,0,0,0,0,0,0,0],"sum_hessian":[1.3043233E4,7.707177E3,5.3360566E3,7.121456E2,6.9950312E3,1.5340833E3,3.8019734E3,7.0328265E2,8.8629675E0,2.809999E2,6.7140312E3,3.7423E2,1.1598533E3,3.7923684E3,9.605196E0,2.838489E0,6.024479E0,1.6080643E2,1.2019349E2,3.1875117E3,3.5265193E3,3.650915E2,7.947618E2,9.3939355E2,2.8529746E3,7.249515E0,2.3556807E0,1.738087E0,1.100402E0,4.810447E1,7.208902E1,2.177934E3,1.0095778E3,3.456435E3,7.0084145E1,3.3486194E2,3.0229532E1,7.634475E2,3.1314264E1,2.0293455E3,8.2362933E2,4.302944E0,2.9465706E0,1.267628E1,3.542819E1,1.2056497E1,6.0032524E1,5.721608E2,1.6057732E3,9.606996E2,4.887823E1,2.377393E3,1.0790421E3,3.6866917E1,2.9799503E2,2.7715666E1,2.5138674E0,6.0536914E2,1.5807834E2,2.884445E2,1.7409009E3,8.081343E2,1.5495046E1,2.7503245E0,1.5526197E0],"tree_param":{"num_deleted":"0","num_feature":"2","num_nodes":"65","size_leaf_vector":"0"}},{"base_weights":[-6.6558135E-1,-4.446432E-1,-1.0254806E0,-1.2237343E0,-3.7797448E-1,-1.2254325E0,-9.59467E-1,-1.2289387E0,-7.5661635E-1,-1.0778115E0,-3.608645E-1,-7.7011704E-1,-1.074717E0,-2.5832447E-1,-9.337843E-1,-1.1760877E0,-8.649712E-1,-2.452259E-1,-4.7247526E-1,-7.5690556E-1,-1.2286111E0,-1.0799421E0,1.9323142E-1,-8.2578564E-1,5.276896E-1,-3.691859E-1,-9.064598E-1,-2.3101401E-1,-1.1277332E0,-4.5927426E-1,-1.2156473E0,-7.6876503E-1,-4.2897654E-1,-1.0395576E0,-1.1806382E0,6.223878E-1,-8.965113E-1,-7.947086E-1,-8.642289E-3,3.9497975E-2,-2.56241E-1,-6.7312413E-1,-1.2084042E0,-4.1079634E-1,-5.8197296E-1,-7.333057E-1,-1.0446411E0,6.7784035E-1,-7.324809E-1,-1.0458353E0,3.4226306E-2,-1.1912858E0,-6.8905276E-1,2.5500974E-1,9.420435E-1],"categories":[],"categories_nodes":[],"categories_segments":[],"categories_sizes":[],"default_left":[true,true,true,true,true,false,true,false,true,true,true,true,true,true,false,false,true,true,true,true,false,true,true,false,false,true,false,true,true,true,false,true,true,true,true,true,false,false,false,false,false,false,false,false,false,false,false,false,false,false,false,false,false,false,false],"id":3,"left_children":[1,3,5,7,9,-1,11,-1,13,15,17,19,21,23,-1,-1,25,27,29,31,-1,33,35,-1,-1,37,-1,39,41,43,-1,45,47,49,51,53,-1,-1,-1,-1,-1,-1,-1,-1,-1,-1,-1,-1,-1,-1,-1,-1,-1,-1,-1],"loss_changes":[9.2883203E2,3.757567E2,5.7492188E1,4.570923E-1,7.9523254E1,0E0,7.219263E1,0E0,5.434437E-1,2.3036346E0,8.3982056E1,6.760315E0,1.39729E1,2.0922124E0,0E0,0E0,7.746849E-1,3.9903E1,3.1960266E1,4.479492E0,0E0,7.1870117E0,4.9421453E0,0E0,0E0,8.909047E-1,0E0,2.1525467E1,1.0384293E0,1.9142395E1,0E0,1.0896484E1,1.5755396E1,1.0047363E1,2.2408447E0,6.189225E-1,0E0,0E0,0E0,0E0,0E0,0E0,0E0,0E0,0E0,0E0,0E0,0E0,0E0,0E0,0E0,0E0,0E0,0E0,0E0],"parents":[2147483647,0,0,1,1,2,2,3,3,4,4,6,6,8,8,9,9,10,10,11,11,12,12,13,13,16,16,17,17,18,18,19,19,21,21,22,22,25,25,27,27,28,28,29,29,31,31,32,32,33,33,34,34,35,35],"right_children":[2,4,6,8,10,-1,12,-1,14,16,18,20,22,24,-1,-1,26,28,30,32,-1,34,36,-1,-1,38,-1,40,42,44,-1,46,48,50,52,54,-1,-1,-1,-1,-1,-1,-1,-1,-1,-1,-1,-1,-1,-1,-1,-1,-1,-1,-1],"split_conditions":[1.2489E5,4.7E2,5.14E2,4.62E2,2.522E3,-3.6762977E-1,2.5471E5,-3.686816E-1,3.5918E4,1.68E3,4.3162E4,9.94E2,1.840958E6,2.23E4,-2.801353E-1,-3.5282633E-1,1.742E3,9.62E2,1.026E3,2.47162E5,-3.6858335E-1,8.00708E5,1.862232E6,-2.477357E-1,1.5830688E-1,5.74E2,-2.7193797E-1,5.34E2,1.008E3,7.06E2,-3.646942E-1,2.25478E5,5.86E2,7.92644E5,1.79575E6,1.853692E6,-2.689534E-1,-2.3841259E-1,-2.5926868E-3,1.1849393E-2,-7.6872304E-2,-2.0193724E-1,-3.6252126E-1,-1.23238906E-1,-1.745919E-1,-2.1999171E-1,-3.1339234E-1,2.0335211E-1,-2.1974428E-1,-3.137506E-1,1.0267892E-2,-3.5738575E-1,-2.0671584E-1,7.650293E-2,2.8261307E-1],"split_indices":[1,0,0,0,1,0,1,0,1,1,1,0,1,1,0,0,1,0,0,1,0,1,1,0,0,0,0,0,0,0,0,1,0,1,1,1,0,0,0,0,0,0,0,0,0,0,0,0,0,0,0,0,0,0,0],"split_type":[0,0,0,0,0,0,0,0,0,0,0,0,0,0,0,0,0,0,0,0,0,0,0,0,0,0,0,0,0,0,0,0,0,0,0,0,0,0,0,0,0,0,0,0,0,0,0,0,0,0,0,0,0,0,0],"sum_hessian":[1.1685878E4,7.242205E3,4.4436733E3,5.695133E2,6.672692E3,1.0985778E3,3.3450955E3,5.616251E2,7.888212E0,1.5776486E2,6.514927E3,1.2685743E3,2.076521E3,2.7137525E0,5.17446E0,1.0483357E2,5.293129E1,3.2012976E3,3.3136292E3,1.2356208E3,3.2953526E1,2.0681465E3,8.374489E0,1.5465935E0,1.167159E0,4.8517523E0,4.8079536E1,3.151803E3,4.949481E1,3.257386E3,5.624311E1,1.1911971E3,4.442367E1,1.4842185E3,5.8392804E2,6.3160176E0,2.0584714E0,1.673018E0,3.1787343E0,2.6880527E2,2.8829976E3,8.867484E0,4.0627327E1,2.337998E3,9.19388E2,1.0587681E3,1.3242914E2,9.29465E0,3.512902E1,1.4756177E3,8.600875E0,5.701553E2,1.3772762E1,3.775093E0,2.5409243E0],"tree_param":{"num_deleted":"0","num_feature":"2","num_nodes":"55","size_leaf_vector":"0"}},{"base_weights":[-5.3505135E-1,-3.439292E-1,-9.207841E-1,-1.151408E0,-2.852566E-1,-1.1513276E0,-8.480855E-1,-1.157406E0,-6.6864204E-1,-2.7409494E-1,-1.1522076E0,-6.4467424E-1,-9.6424115E-1,-2.2060263E-1,-8.3363754E-1,-7.558831E-1,-2.5419623E-1,-6.3129556E-1,-1.1360681E0,-9.6946675E-1,1.587655E-1,-7.383088E-1,4.3258506E-1,-1.0828431E0,-6.0243624E-1,9.0101146E-4,-2.953065E-1,-6.6805476E-1,-4.1108513E-1,-9.1666335E-1,-1.0830384E0,5.2283704E-1,-8.020453E-1,-5.576142E-1,-9.976981E-1,-3.2777312E-1,8.437513E-2,-2.294922E-1,-3.9408028E-1,-6.835969E-1,-3.328443E-1,-1.4377129E-1,-6.020511E-1,-9.212863E-1,-6.247335E-2,-1.0943538E0,-5.633067E-1,9.0086675E-1,1.3933535E-1],"categories":[],"categories_nodes":[],"categories_segments":[],"categories_sizes":[],"default_left":[true,true,true,true,true,false,true,false,true,true,false,true,true,true,false,true,true,true,false,true,true,false,false,false,true,true,true,true,true,true,true,true,false,false,false,false,false,false,false,false,false,false,false,false,false,false,false,false,false],"id":4,"left_children":[1,3,5,7,9,-1,11,-1,13,15,-1,17,19,21,-1,23,25,27,-1,29,31,-1,-1,-1,33,35,37,39,41,43,45,47,-1,-1,-1,-1,-1,-1,-1,-1,-1,-1,-1,-1,-1,-1,-1,-1,-1],"loss_changes":[7.7451733E2,3.3271136E2,5.737622E1,6.0406494E-1,6.3111755E1,0E0,6.20083E1,0E0,4.228425E-1,6.1861603E1,0E0,5.63678E0,1.0043579E1,1.526238E0,0E0,1.2202713E1,6.520398E1,7.359833E0,0E0,9.067505E0,3.4503005E0,0E0,0E0,0E0,2.5730667E0,2.3729885E1,3.471826E1,3.9748535E0,6.9332657E0,4.4901733E0,2.4822998E0,8.732227E-1,0E0,0E0,0E0,0E0,0E0,0E0,0E0,0E0,0E0,0E0,0E0,0E0,0E0,0E0,0E0,0E0,0E0],"parents":[2147483647,0,0,1,1,2,2,3,3,4,4,6,6,8,8,9,9,11,11,12,12,13,13,15,15,16,16,17,17,19,19,20,20,24,24,25,25,26,26,27,27,28,28,29,29,30,30,31,31],"right_children":[2,4,6,8,10,-1,12,-1,14,16,-1,18,20,22,-1,24,26,28,-1,30,32,-1,-1,-1,34,36,38,40,42,44,46,48,-1,-1,-1,-1,-1,-1,-1,-1,-1,-1,-1,-1,-1,-1,-1,-1,-1],"split_conditions":[1.3509E5,4.7E2,5.18E2,4.62E2,1.026E3,-3.453983E-1,2.5471E5,-3.472218E-1,3.5918E4,4.26E3,-3.456623E-1,9.94E2,1.840958E6,2.23E4,-2.5009128E-1,1.68E3,1.5072E4,8.5E2,-3.4082043E-1,7.34568E5,1.862232E6,-2.2149265E-1,1.2977552E-1,-3.2485294E-1,7.98E2,5.62E2,6.5E2,2.46512E5,1.69312E5,7.30244E5,1.79575E6,1.84884E6,-2.406136E-1,-1.6728427E-1,-2.9930946E-1,-9.833194E-2,2.531254E-2,-6.884766E-2,-1.1822409E-1,-2.0507908E-1,-9.985329E-2,-4.313139E-2,-1.8061534E-1,-2.763859E-1,-1.8742006E-2,-3.2830614E-1,-1.6899201E-1,2.7026004E-1,4.1800607E-2],"split_indices":[1,0,0,0,0,0,1,0,1,1,0,0,1,1,0,1,1,0,0,1,1,0,0,0,0,0,0,1,1,1,1,1,0,0,0,0,0,0,0,0,0,0,0,0,0,0,0,0,0],"split_type":[0,0,0,0,0,0,0,0,0,0,0,0,0,0,0,0,0,0,0,0,0,0,0,0,0,0,0,0,0,0,0,0,0,0,0,0,0,0,0,0,0,0,0,0,0,0,0,0,0],"sum_hessian":[1.0509204E4,7.028585E3,3.480619E3,4.7485074E2,6.5537344E3,8.3087885E2,2.64974E3,4.676431E2,7.2076344E0,6.4717295E3,8.200486E1,9.655037E2,1.6842363E3,2.5689E0,4.6387343E0,2.5522495E2,6.2165044E3,9.421378E2,2.3365887E1,1.6765717E3,7.6647463E0,1.3603734E0,1.2085266E0,7.958686E1,1.7563809E2,8.629166E2,5.353588E3,8.056233E2,1.3651457E2,1.1506611E3,5.2591046E2,5.889085E0,1.7756612E0,1.599148E2,1.5723304E1,1.7417738E2,6.8873926E2,3.214828E3,2.13876E3,7.689323E2,3.6690983E1,5.7616272E1,7.88983E1,1.1443892E3,6.272038E0,5.1362244E2,1.2287989E1,2.2863257E0,3.6027594E0],"tree_param":{"num_deleted":"0","num_feature":"2","num_nodes":"49","size_leaf_vector":"0"}},{"base_weights":[-4.259429E-1,-2.5146466E-1,-8.013682E-1,-1.1016163E0,-2.0424734E-1,-1.1030511E0,-7.170361E-1,-1.1096596E0,-5.690006E-1,-1.951302E-1,-1.0994223E0,-4.8283124E-1,-8.508721E-1,-1.9369996E-1,-7.203225E-1,-8.76257E-1,-1.8365875E-1,-4.7042227E-1,-1.0623887E0,-7.952803E-1,-9.922663E-1,-6.662336E-1,3.569691E-1,-1.0119705E0,-6.304263E-1,-1.05160564E-1,-2.6652756E-1,-7.583154E-1,-4.4806343E-1,-8.161651E-1,-5.785784E-1,-1.0257921E0,-2.3326656E-1,-8.509997E-2,-6.7010474E-1,-3.610906E-1,-8.40991E-2,-2.2686006E-1,-3.788952E-1,3.3140823E-1,-8.1890684E-1,-2.7041045E-1,-5.184364E-1,-7.501155E-1,-9.456965E-1,-1.4079328E-1,-8.7359613E-1,-1.1169376E0,-9.3433625E-1,3.0064614E0,-6.141789E-1],"categories":[],"categories_nodes":[],"categories_segments":[],"categories_sizes":[],"default_left":[true,true,true,true,true,false,true,false,true,true,false,true,true,true,false,true,true,true,false,true,true,false,false,false,true,true,true,true,true,true,true,true,true,false,false,false,false,false,false,false,false,false,false,false,false,false,false,false,false,false,false],"id":5,"left_children":[1,3,5,7,9,-1,11,-1,13,15,-1,17,19,21,-1,23,25,27,-1,29,31,-1,-1,-1,33,35,37,39,41,43,45,47,49,-1,-1,-1,-1,-1,-1,-1,-1,-1,-1,-1,-1,-1,-1,-1,-1,-1,-1],"loss_changes":[6.255775E2,2.6164645E2,7.631531E1,8.381653E-1,5.023636E1,0E0,7.392261E1,0E0,2.6685286E-1,4.7661743E1,0E0,5.71875E0,1.1062622E1,1.1287717E0,0E0,2.7352676E0,3.9134964E1,5.1210175E0,0E0,4.4486694E0,1.0485626E1,0E0,0E0,0E0,7.7853775E-1,1.6643772E1,1.2965225E1,4.212837E0,9.73204E0,7.7544556E0,1.2665039E1,2.3186646E0,2.5446285E1,0E0,0E0,0E0,0E0,0E0,0E0,0E0,0E0,0E0,0E0,0E0,0E0,0E0,0E0,0E0,0E0,0E0,0E0],"parents":[2147483647,0,0,1,1,2,2,3,3,4,4,6,6,8,8,9,9,11,11,12,12,13,13,15,15,16,16,17,17,19,19,20,20,24,24,25,25,26,26,27,27,28,28,29,29,30,30,31,31,32,32],"right_children":[2,4,6,8,10,-1,12,-1,14,16,-1,18,20,22,-1,24,26,28,-1,30,32,-1,-1,-1,34,36,38,40,42,44,46,48,50,-1,-1,-1,-1,-1,-1,-1,-1,-1,-1,-1,-1,-1,-1,-1,-1,-1,-1],"split_conditions":[1.2489E5,4.7E2,5.14E2,4.62E2,1.026E3,-3.3091533E-1,2.25478E5,-3.3289787E-1,3.5918E4,2.474E3,-3.298267E-1,9.94E2,7.34568E5,2.23E4,-2.1609676E-1,1.68E3,4.3768E4,5.66E2,-3.1871662E-1,6.63442E5,1.79575E6,-1.998701E-1,1.07090734E-1,-3.0359116E-1,1.734E3,5.626E3,9.2014E4,1.2751E5,6.26E2,4.63778E5,6.8993E5,6.82E2,1.800592E6,-2.5529994E-2,-2.0103143E-1,-1.0832719E-1,-2.5229732E-2,-6.805802E-2,-1.1366856E-1,9.942248E-2,-2.4567206E-1,-8.1123136E-2,-1.5553091E-1,-2.2503467E-1,-2.8370896E-1,-4.2237986E-2,-2.6207885E-1,-3.350813E-1,-2.803009E-1,9.0193844E-1,-1.8425368E-1],"split_indices":[1,0,0,0,0,0,1,0,1,1,0,0,1,1,0,1,1,0,0,1,1,0,0,0,1,1,1,1,0,1,1,0,1,0,0,0,0,0,0,0,0,0,0,0,0,0,0,0,0,0,0],"split_type":[0,0,0,0,0,0,0,0,0,0,0,0,0,0,0,0,0,0,0,0,0,0,0,0,0,0,0,0,0,0,0,0,0,0,0,0,0,0,0,0,0,0,0,0,0,0,0,0,0,0,0],"sum_hessian":[9.552362E3,6.522645E3,3.0297173E3,3.420305E2,6.1806143E3,6.592585E2,2.3704587E3,3.3587482E2,6.1556764E0,6.119507E3,6.1107746E1,8.636796E2,1.5067792E3,2.4239573E0,3.7317193E0,1.00108315E2,6.0193984E3,8.4734863E2,1.6330992E1,1.086303E3,4.2047617E2,1.1915857E0,1.2323716E0,6.2492256E1,3.7616062E1,3.092382E3,2.9270164E3,5.8693546E1,7.886551E2,9.882894E2,9.801355E1,4.0235236E2,1.8123806E1,2.76464E0,3.485142E1,2.3390633E2,2.8584758E3,2.1655596E3,7.614567E2,2.856185E0,5.5837364E1,2.2514082E2,5.635143E2,6.590321E2,3.2925735E2,4.0053806E1,5.7959743E1,1.9590216E2,2.064502E2,1.1815679E0,1.6942238E1],"tree_param":{"num_deleted":"0","num_feature":"2","num_nodes":"51","size_leaf_vector":"0"}},{"base_weights":[-3.349226E-1,-1.9280715E-1,-7.186793E-1,-1.0770503E0,-1.5341237E-1,-1.0654982E0,-6.2880623E-1,-1.4604521E-1,-1.0626616E0,-1.0789533E0,-8.5096747E-1,-4.1468832E-1,-7.761647E-1,-8.6948127E-1,-1.3791403E-1,-5.672679E-1,-9.95206E-1,-4.0173966E-1,-1.0266753E0,-7.132195E-1,-9.2289054E-1,-9.4998527E-1,-6.0626036E-1,-1.021083E-1,-2.6150566E-1,-1.7653939E-1,-7.458016E-1,-4.4076952E-1,-1.7886578E-1,-7.515009E-1,-5.233E-1,-9.5066875E-1,2.8750354E-1,-1.3193399E-1,-7.229788E-1,-1.23710826E-1,2.5143066E-1,-5.1773097E-2,-2.9821974E-1,-7.9667664E-1,7.090705E-1,-9.3297017E-1,-6.443296E-2,-4.6013853E-1,-6.973605E-2,-9.1173637E-1,-1.0559691E-1,-7.972949E-1,-4.0260598E-1,-3.67599E-1,-1.076705E0,-9.6621394E-1,-4.4601023E-1,5.7095635E-1,-6.6819495E-1],"categories":[],"categories_nodes":[],"categories_segments":[],"categories_sizes":[],"default_left":[true,true,true,false,true,true,true,true,false,false,true,true,true,true,true,true,false,true,false,true,true,false,true,true,true,true,true,true,true,true,true,true,true,false,false,false,false,false,false,false,false,false,false,false,false,false,false,false,false,false,false,false,false,false,false],"id":6,"left_children":[1,3,5,-1,7,9,11,13,-1,-1,15,17,19,21,23,25,-1,27,-1,29,31,-1,33,35,37,39,41,43,45,47,49,51,53,-1,-1,-1,-1,-1,-1,-1,-1,-1,-1,-1,-1,-1,-1,-1,-1,-1,-1,-1,-1,-1,-1],"loss_changes":[4.79726E2,2.235523E2,7.343506E1,0E0,4.1037994E1,4.8999023E-1,5.9331055E1,3.577008E1,0E0,0E0,8.072777E-1,5.712097E0,9.674194E0,8.570671E-1,2.6678314E1,8.1879854E-1,0E0,6.519165E0,0E0,5.3306274E0,1.14513855E1,0E0,9.344907E-1,3.577924E1,1.0417725E1,3.631225E0,1.0929976E0,4.601677E0,6.0636663E0,1.0111023E1,1.1267899E1,2.1204834E0,2.6100101E0,0E0,0E0,0E0,0E0,0E0,0E0,0E0,0E0,0E0,0E0,0E0,0E0,0E0,0E0,0E0,0E0,0E0,0E0,0E0,0E0,0E0,0E0],"parents":[2147483647,0,0,1,1,2,2,4,4,5,5,6,6,7,7,10,10,11,11,12,12,13,13,14,14,15,15,17,17,19,19,20,20,22,22,23,23,24,24,25,25,26,26,27,27,28,28,29,29,30,30,31,31,32,32],"right_children":[2,4,6,-1,8,10,12,14,-1,-1,16,18,20,22,24,26,-1,28,-1,30,32,-1,34,36,38,40,42,44,46,48,50,52,54,-1,-1,-1,-1,-1,-1,-1,-1,-1,-1,-1,-1,-1,-1,-1,-1,-1,-1,-1,-1,-1,-1],"split_conditions":[1.3509E5,4.62E2,5.18E2,-3.231151E-1,1.026E3,4.82E2,2.5471E5,2.102E3,-3.187985E-1,-3.23686E-1,4.98E2,9.94E2,7.34568E5,1.68E3,7.1E2,2.94646E5,-2.985618E-1,8.5E2,-3.0800262E-1,8.42E2,1.840958E6,-2.849956E-1,1.742E3,6.82E2,1.74E4,2.50064E5,6.64008E5,2.4577E5,1.4128E5,6.63442E5,1.012E3,1.79575E6,1.862232E6,-3.9580196E-2,-2.1689364E-1,-3.711325E-2,7.54292E-2,-1.553193E-2,-8.946592E-2,-2.39003E-1,2.1272115E-1,-2.7989107E-1,-1.9329887E-2,-1.3804157E-1,-2.0920815E-2,-2.7352092E-1,-3.1679075E-2,-2.3918848E-1,-1.207818E-1,-1.1027971E-1,-3.2301152E-1,-2.8986418E-1,-1.3380307E-1,1.7128691E-1,-2.004585E-1],"split_indices":[1,0,0,0,0,0,1,1,0,0,0,0,1,1,0,1,0,0,0,0,1,0,1,0,1,1,1,1,1,1,0,1,1,0,0,0,0,0,0,0,0,0,0,0,0,0,0,0,0,0,0,0,0,0,0],"split_type":[0,0,0,0,0,0,0,0,0,0,0,0,0,0,0,0,0,0,0,0,0,0,0,0,0,0,0,0,0,0,0,0,0,0,0,0,0,0,0,0,0,0,0,0,0,0,0,0,0,0,0,0,0,0,0],"sum_hessian":[8.79776E3,6.4212866E3,2.3764734E3,2.7275565E2,6.148531E3,4.8685413E2,1.8896193E3,6.100264E3,4.8266594E1,4.5432986E2,3.2524258E1,7.718718E2,1.1177474E3,6.6625435E1,6.0336387E3,1.2625091E1,1.9899166E1,7.5750073E2,1.4371057E1,7.862906E2,3.3145685E2,4.902305E1,1.7602385E1,4.679707E3,1.3539318E3,4.5832615E0,8.041829E0,6.437832E2,1.1371755E2,6.51927E2,1.3436356E2,3.2423044E2,7.2264223E0,3.8967853E0,1.37056E1,4.410839E3,2.6886838E2,2.0205939E2,1.1518724E3,2.754722E0,1.8285394E0,6.019142E0,2.022687E0,6.11615E2,3.2168175E1,9.295526E0,1.0442203E2,5.7515076E2,7.677627E1,1.061597E2,2.8203867E1,3.1365427E2,1.0576166E1,5.8838844E0,1.3425378E0],"tree_param":{"num_deleted":"0","num_feature":"2","num_nodes":"55","size_leaf_vector":"0"}},{"base_weights":[-2.594778E-1,-1.052017E0,-2.0273025E-1,-1.0568061E0,-6.4751416E-1,-1.2620623E-1,-6.6284066E-1,-2.4648374E-1,-8.823154E-1,-8.400243E-2,-2.6372758E-1,-5.891128E-1,-8.479923E-1,-4.3732196E-1,-2.2019211E-2,-6.7050695E-1,-7.403811E-2,-2.559355E-1,-9.98469E-1,-6.1402893E-1,4.1834083E-1,-8.880661E-1,-1.2462748E-1,1.0040026E-1,-1.3315818E-1,-8.960695E-1,-4.4611138E-1,-6.856807E-2,-1.0231228E0,-4.8735067E-1,-2.3119417E-1,-6.6096675E-1,-3.6025414E-1,-2.3535776E-1,1.033069E0,-8.0068904E-1,-1.0554271E0,1.9776752E0,-4.8500535E-1,-7.238683E-1,-1.0187199E0,-3.8881412E-1,-7.67965E-1,-2.8161613E-2,-1.6218635E-1,1.8721072E-1,-6.3618153E-1,2.821786E-2,-2.5603178E-1,-5.8806694E-1,-8.018947E-1,-1.9288567E-1,-1.0377693E0,7.4437773E-1,-9.464783E-1,1.986927E0,-6.4505047E-1,-8.346005E-1,2.2759192E0,-1.0304507E0,2.1238925E-1],"categories":[],"categories_nodes":[],"categories_segments":[],"categories_sizes":[],"default_left":[true,true,true,false,true,true,true,true,false,true,true,true,true,false,true,true,true,true,false,true,true,true,true,false,false,true,true,true,false,true,true,true,true,true,true,true,false,false,true,false,false,false,false,false,false,false,false,false,false,false,false,false,false,false,false,false,false,false,false,false,false],"id":7,"left_children":[1,3,5,-1,7,9,11,13,-1,15,17,19,21,-1,23,25,27,29,-1,31,33,35,37,-1,-1,39,41,43,-1,45,47,49,51,53,55,57,-1,-1,59,-1,-1,-1,-1,-1,-1,-1,-1,-1,-1,-1,-1,-1,-1,-1,-1,-1,-1,-1,-1,-1,-1],"loss_changes":[3.6985388E2,3.8031006E-1,2.7031793E2,0E0,6.3115764E-1,3.8201836E1,1.4446747E1,1.9237804E-1,0E0,2.9409534E1,8.5959015E0,1.9995789E1,8.862518E0,0E0,5.717908E-2,3.8562584E0,2.5668139E1,8.654114E0,0E0,8.90741E0,8.108626E0,3.4416046E0,1.4150775E1,0E0,0E0,1.2730789E-1,5.154648E-1,1.8646086E1,0E0,1.4876141E1,8.932251E0,6.172821E0,1.3638492E1,7.8809557E0,1.772537E1,2.2424973E1,0E0,0E0,6.1783977E0,0E0,0E0,0E0,0E0,0E0,0E0,0E0,0E0,0E0,0E0,0E0,0E0,0E0,0E0,0E0,0E0,0E0,0E0,0E0,0E0,0E0,0E0],"parents":[2147483647,0,0,1,1,2,2,4,4,5,5,6,6,7,7,9,9,10,10,11,11,12,12,14,14,15,15,16,16,17,17,19,19,20,20,21,21,22,22,25,25,26,26,27,27,29,29,30,30,31,31,32,32,33,33,34,34,35,35,38,38],"right_children":[2,4,6,-1,8,10,12,14,-1,16,18,20,22,-1,24,26,28,30,-1,32,34,36,38,-1,-1,40,42,44,-1,46,48,50,52,54,56,58,-1,-1,60,-1,-1,-1,-1,-1,-1,-1,-1,-1,-1,-1,-1,-1,-1,-1,-1,-1,-1,-1,-1,-1,-1],"split_conditions":[4.7E2,4.62E2,2.1709E5,-3.1704184E-1,7.4988E4,8.7234E4,6.8993E5,2.7994E4,-2.6469463E-1,2.654E3,1.026E3,6.75518E5,1.79575E6,-1.3119659E-1,4.555E4,1.68E3,1.026E3,5.66E2,-2.995407E-1,8.54E2,6.98E2,1.2118535E6,1.800592E6,3.012008E-2,-3.9947454E-2,6.3E2,7.78E2,6.58E2,-3.0693686E-1,9.3134E4,5.86E2,4.63778E5,1.012E3,6.818E5,7.74E2,1.2062175E6,-3.1662813E-1,5.933026E-1,1.840958E6,-2.1716051E-1,-3.05616E-1,-1.1664424E-1,-2.3038952E-1,-8.448484E-3,-4.865591E-2,5.6163218E-2,-1.9085447E-1,8.465358E-3,-7.680954E-2,-1.764201E-1,-2.4056843E-1,-5.78657E-2,-3.113308E-1,2.2331333E-1,-2.839435E-1,5.9607816E-1,-1.9351515E-1,-2.5038016E-1,6.827758E-1,-3.0913523E-1,6.371678E-2],"split_indices":[0,0,1,0,1,1,1,1,0,1,0,1,1,0,1,1,0,0,0,0,0,1,1,0,0,0,0,0,0,1,0,1,0,1,0,1,0,0,1,0,0,0,0,0,0,0,0,0,0,0,0,0,0,0,0,0,0,0,0,0,0],"split_type":[0,0,0,0,0,0,0,0,0,0,0,0,0,0,0,0,0,0,0,0,0,0,0,0,0,0,0,0,0,0,0,0,0,0,0,0,0,0,0,0,0,0,0,0,0,0,0,0,0,0,0,0,0,0,0,0,0,0,0,0,0],"sum_hessian":[8.227353E3,5.4856226E2,7.67879E3,5.405498E2,8.012447E0,6.584888E3,1.0939022E3,3.7157912E0,4.296656E0,5.0398296E3,1.5450582E3,7.853539E2,3.0854834E2,1.4957906E0,2.2200005E0,8.3085464E1,4.956744E3,1.5301787E3,1.4879531E1,7.667805E2,1.8573336E1,2.9213654E2,1.6411806E1,1.1023678E0,1.1176329E0,3.9942234E1,4.314323E1,4.929406E3,2.7338348E1,1.45989E2,1.3841897E3,6.457407E2,1.21039795E2,9.300437E0,9.272899E0,1.9573169E2,9.6404854E1,1.7449094E0,1.4666897E1,1.9485899E1,2.0456333E1,3.849779E1,4.6454372E0,3.444172E3,1.4852336E3,2.6341377E1,1.1964761E2,1.2093802E2,1.2632517E3,4.289991E2,2.1674162E2,9.809244E1,2.2947353E1,3.8918006E0,5.4086366E0,5.7949677E0,3.477931E0,1.9431856E2,1.413123E0,7.9620533E0,6.7048435E0],"tree_param":{"num_deleted":"0","num_feature":"2","num_nodes":"61","size_leaf_vector":"0"}},{"base_weights":[-1.9893017E-1,-1.0337471E0,-1.5204617E-1,-1.0402325E0,-5.757882E-1,-9.168534E-2,-5.7192737E-1,-2.0931968E-1,-8.2631725E-1,-8.667262E-2,-1.0161017E0,-5.077274E-1,-8.247842E-1,-3.7589568E-1,-1.885174E-2,-4.2726472E-2,-1.6025303E-1,-5.198522E-1,1.5388285E0,-8.878468E-1,-9.5371544E-2,8.415548E-2,-1.14159964E-1,-3.4749594E-1,-2.457963E-2,-7.342451E-1,-1.4915043E-1,-4.433058E-1,-6.340528E-1,-6.7408764E-1,3.048622E0,-9.313501E-1,-3.2455236E-1,1.4413941E0,-4.180868E-1,-8.1543666E-1,-2.6560554E-1,2.2737586E-1,-5.208213E-2,-7.5367875E-2,-7.5656015E-1,-2.8039312E-1,-1.3376443E-1,-4.9089104E-1,-2.4255984E-1,-8.2077074E-1,-4.708736E-1,-1.0373985E0,-8.000771E-1,1.6051621E0,-8.7274885E-1,-9.64254E-1,1.5863958E-1],"categories":[],"categories_nodes":[],"categories_segments":[],"categories_sizes":[],"default_left":[true,true,true,false,true,true,true,true,false,true,false,true,true,false,true,true,true,true,true,true,true,false,false,true,true,true,true,true,true,false,false,true,true,false,true,false,false,false,false,false,false,false,false,false,false,false,false,false,false,false,false,false,false],"id":8,"left_children":[1,3,5,-1,7,9,11,13,-1,15,-1,17,19,-1,21,23,25,27,29,31,33,-1,-1,35,37,39,41,43,45,-1,-1,47,49,-1,51,-1,-1,-1,-1,-1,-1,-1,-1,-1,-1,-1,-1,-1,-1,-1,-1,-1,-1],"loss_changes":[3.045864E2,6.30188E-1,1.8681738E2,0E0,5.632396E-1,2.9789478E1,1.462207E1,1.3870764E-1,0E0,2.073333E1,0E0,1.9200333E1,8.471558E0,0E0,4.099015E-2,2.2207956E1,1.5172443E1,6.169449E0,1.7490088E1,3.890274E0,8.49918E0,0E0,0E0,8.430935E0,2.6290537E1,6.0826683E-1,4.71542E0,4.1328735E0,8.565063E0,0E0,0E0,1.3735657E0,1.6000175E1,0E0,4.5421085E0,0E0,0E0,0E0,0E0,0E0,0E0,0E0,0E0,0E0,0E0,0E0,0E0,0E0,0E0,0E0,0E0,0E0,0E0],"parents":[2147483647,0,0,1,1,2,2,4,4,5,5,6,6,7,7,9,9,11,11,12,12,14,14,15,15,16,16,17,17,18,18,19,19,20,20,23,23,24,24,25,25,26,26,27,27,28,28,31,31,32,32,34,34],"right_children":[2,4,6,-1,8,10,12,14,-1,16,-1,18,20,-1,22,24,26,28,30,32,34,-1,-1,36,38,40,42,44,46,-1,-1,48,50,-1,52,-1,-1,-1,-1,-1,-1,-1,-1,-1,-1,-1,-1,-1,-1,-1,-1,-1,-1],"split_conditions":[4.7E2,4.62E2,2.1709E5,-3.1206977E-1,7.4988E4,1.026E3,8.00708E5,2.7994E4,-2.4789518E-1,6.2666E4,-3.0483052E-1,7.92644E5,1.79575E6,-1.1276871E-1,4.555E4,4.87E3,5.14E2,4.50774E5,7.08E2,9.38E2,1.800592E6,2.5246644E-2,-3.424799E-2,1.726E3,5.38E2,6.3562E4,6.8624E4,8.54E2,6.98E2,-2.022263E-1,9.145866E-1,6.82E2,9.137875E5,4.3241826E-1,1.840958E6,-2.44631E-1,-7.9681665E-2,6.821276E-2,-1.562464E-2,-2.2610363E-2,-2.2696805E-1,-8.411794E-2,-4.012933E-2,-1.4726731E-1,-7.276795E-2,-2.4623123E-1,-1.4126208E-1,-3.1121954E-1,-2.4002314E-1,4.8154867E-1,-2.6182467E-1,-2.892762E-1,4.7591876E-2],"split_indices":[0,0,1,0,1,0,1,1,0,1,0,1,1,0,1,1,0,1,0,0,1,0,0,1,0,1,1,0,0,0,0,0,1,0,1,0,0,0,0,0,0,0,0,0,0,0,0,0,0,0,0,0,0],"split_type":[0,0,0,0,0,0,0,0,0,0,0,0,0,0,0,0,0,0,0,0,0,0,0,0,0,0,0,0,0,0,0,0,0,0,0,0,0,0,0,0,0,0,0,0,0,0,0,0,0,0,0,0,0],"sum_hessian":[7.7850747E3,4.1284824E2,7.3722266E3,4.0582953E2,7.0186877E0,6.446689E3,9.2553784E2,3.5952067E0,3.423481E0,6.4130073E3,3.3681267E1,7.405271E2,1.850107E2,1.3985502E0,2.1966565E0,4.0160115E3,2.3969958E3,7.369073E2,3.6198251E0,1.7008824E2,1.4922466E1,1.1119264E0,1.0847301E0,2.2466682E2,3.7913447E3,4.4248814E1,2.352747E3,4.4411057E2,2.9279672E2,1.6925559E0,1.9272693E0,1.572875E2,1.2800724E1,1.988205E0,1.2934261E1,3.2127155E1,1.9253967E2,3.724051E2,3.4189397E3,1.5929384E0,4.2655872E1,2.4507047E2,2.1076768E3,3.578417E2,8.626887E1,1.3467029E2,1.5812645E2,8.3184586E1,7.410293E1,2.405392E0,1.0395332E1,6.2980165E0,6.6362453E0],"tree_param":{"num_deleted":"0","num_feature":"2","num_nodes":"53","size_leaf_vector":"0"}},{"base_weights":[-1.5048335E-1,-1.0191886E0,-1.1267186E-1,-1.0279386E0,-5.101596E-1,-6.686144E-2,-4.916065E-1,-5.3439878E-2,-6.8187636E-1,-6.2939085E-2,-9.956907E-1,-4.1873503E-1,-7.425471E-1,-3.5871062E-2,-1.5466468E-1,-8.236704E-1,-3.8811004E-1,-7.9911107E-1,-7.360349E-2,-6.43327E-1,-3.1089596E-2,-7.3592514E-1,-1.4744033E-1,-5.644087E-1,-1.003511E0,2.499219E-1,-4.3410024E-1,-1.0229765E0,-6.0793513E-1,1.1636946E0,-3.5947382E-1,-7.644463E-1,-3.7506735E-1,6.386857E-2,-5.2888162E-2,2.7082014E-1,-8.1929874E-1,-7.536219E-1,-1.4260899E-1,-8.783992E-1,-1.9654268E-1,-2.5513276E-1,8.205692E-1,-4.4332612E-1,7.443005E-1,-4.586234E-1,-9.952201E-1,-9.0580815E-1,1.182097E-1],"categories":[],"categories_nodes":[],"categories_segments":[],"categories_sizes":[],"default_left":[true,true,true,false,true,true,true,false,false,true,false,true,true,true,true,true,true,true,true,true,true,true,true,true,false,true,true,false,true,false,true,false,false,false,false,false,false,false,false,false,false,false,false,false,false,false,false,false,false],"id":9,"left_children":[1,3,5,-1,7,9,11,-1,-1,13,-1,15,17,19,21,23,25,27,29,31,33,35,37,39,-1,41,43,-1,45,-1,47,-1,-1,-1,-1,-1,-1,-1,-1,-1,-1,-1,-1,-1,-1,-1,-1,-1,-1],"loss_changes":[2.4483423E2,8.604431E-1,1.2403887E2,0E0,5.3133774E-1,2.3172298E1,1.3782608E1,0E0,0E0,1.5765083E1,0E0,7.11557E0,6.455002E0,1.422921E1,5.967865E0,1.357624E0,1.6520035E1,6.166954E0,5.5552163E0,9.5650387E-1,1.0081128E1,1.6918831E0,4.082014E0,2.0434723E0,0E0,1.123011E1,6.0056686E0,0E0,4.633713E0,0E0,3.3852677E0,0E0,0E0,0E0,0E0,0E0,0E0,0E0,0E0,0E0,0E0,0E0,0E0,0E0,0E0,0E0,0E0,0E0,0E0],"parents":[2147483647,0,0,1,1,2,2,4,4,5,5,6,6,9,9,11,11,12,12,13,13,14,14,15,15,16,16,17,17,18,18,19,19,20,20,21,21,22,22,23,23,25,25,26,26,28,28,30,30],"right_children":[2,4,6,-1,8,10,12,-1,-1,14,-1,16,18,20,22,24,26,28,30,32,34,36,38,40,-1,42,44,-1,46,-1,48,-1,-1,-1,-1,-1,-1,-1,-1,-1,-1,-1,-1,-1,-1,-1,-1,-1,-1],"split_conditions":[4.7E2,4.62E2,2.25478E5,-3.083816E-1,3.5918E4,1.026E3,7.34568E5,-1.6031964E-2,-2.0456292E-1,8.7234E4,-2.9870722E-1,2.39444E5,1.79575E6,2.102E3,5.14E2,2.31678E5,2.51252E5,6.82E2,1.800592E6,1.68E3,1.423E4,8.8786E4,8.7594E4,6.78E2,-3.010533E-1,7.02E2,7.30244E5,-3.0689296E-1,1.2118535E6,3.491084E-1,1.840958E6,-2.293339E-1,-1.1252021E-1,1.916057E-2,-1.586645E-2,8.124605E-2,-2.4578963E-1,-2.2608657E-1,-4.2782698E-2,-2.6351976E-1,-5.8962807E-2,-7.653983E-2,2.4617077E-1,-1.3299784E-1,2.2329016E-1,-1.3758703E-1,-2.9856604E-1,-2.7174246E-1,3.5462912E-2],"split_indices":[0,0,1,0,1,0,1,0,0,1,0,1,1,1,0,1,1,0,1,1,1,1,1,0,0,0,1,0,1,0,1,0,0,0,0,0,0,0,0,0,0,0,0,0,0,0,0,0,0],"split_type":[0,0,0,0,0,0,0,0,0,0,0,0,0,0,0,0,0,0,0,0,0,0,0,0,0,0,0,0,0,0,0,0,0,0,0,0,0,0,0,0,0,0,0,0,0,0,0,0,0],"sum_hessian":[7.456262E3,3.0992374E2,7.146339E3,3.036841E2,6.239615E0,6.3766274E3,7.69711E2,2.0632205E0,4.1763945E0,6.3508765E3,2.5751371E1,5.9856146E2,1.7114958E2,4.9048555E3,1.446021E3,4.0265095E1,5.582963E2,1.5762654E2,1.3523041E1,3.72631E1,4.8675923E3,1.651335E1,1.4295076E3,1.8186071E1,2.2079023E1,3.7238888E1,5.2105743E2,7.060163E1,8.702491E1,1.961708E0,1.1561333E1,2.4397821E1,1.2865277E1,9.0842267E2,3.9591697E3,1.09101E0,1.5422339E1,1.0077777E1,1.4194298E3,9.062764E0,9.123308E0,2.0048103E1,1.7190783E1,5.1762866E2,3.4288065E0,6.438607E1,2.2638844E1,4.9750433E0,6.586289E0],"tree_param":{"num_deleted":"0","num_feature":"2","num_nodes":"49","size_leaf_vector":"0"}},{"base_weights":[-1.1284558E-1,-1.0185193E0,-8.3292134E-2,-4.831935E-2,-4.0811536E-1,-4.5298282E-2,-9.7530216E-1,-3.2799545E-1,-6.4897215E-1,-1.6296523E-2,-1.0041415E-1,-3.6689273E-1,5.8257943E-1,-6.952966E-1,-5.68902E-2,-1.0457095E-2,-8.1093E-1,-3.5575286E-1,-5.069464E-2,-2.9606578E-1,-6.0025144E-1,-9.0636835E-2,1.0081295E0,-5.7261664E-1,-1.0031587E0,9.8902273E-1,-3.0818442E-1,-1.759225E-2,4.40841E-1,-9.369439E-1,1.2149972E0,-3.900555E-1,1.5923901E0,4.5176843E-1,-1.0146892E-1,-3.299263E-1,7.350543E-1,-1.0281798E0,-2.7578968E-1,1.038522E0,-6.29091E-1,1.5226785E0,-5.5450386E-1,-6.2726104E-1,1.9158771E0,-8.510391E-1,8.792942E-2],"categories":[],"categories_nodes":[],"categories_segments":[],"categories_sizes":[],"default_left":[true,false,true,true,true,true,false,true,true,true,true,true,true,true,true,true,true,true,true,true,true,true,true,true,false,false,true,false,false,false,false,false,false,false,false,false,false,false,false,false,false,false,false,false,false,false,false],"id":10,"left_children":[1,-1,3,5,7,9,-1,11,13,15,17,19,21,23,25,27,29,31,33,35,37,39,41,43,-1,-1,45,-1,-1,-1,-1,-1,-1,-1,-1,-1,-1,-1,-1,-1,-1,-1,-1,-1,-1,-1,-1],"loss_changes":[1.9288635E2,0E0,7.9305695E1,1.7613602E1,1.2882645E1,1.0046009E1,0E0,1.832148E1,4.5784454E0,1.9108356E1,2.7492899E1,7.9361725E0,6.2023582E0,5.319824E0,3.802147E0,1.3180417E1,8.807688E0,2.4212315E1,4.6350296E1,1.3460461E1,1.5452156E1,6.234078E0,1.1419115E1,1.6693356E1,0E0,0E0,2.5457919E0,0E0,0E0,0E0,0E0,0E0,0E0,0E0,0E0,0E0,0E0,0E0,0E0,0E0,0E0,0E0,0E0,0E0,0E0,0E0,0E0],"parents":[2147483647,0,0,2,2,3,3,4,4,5,5,7,7,8,8,9,9,10,10,11,11,12,12,13,13,14,14,15,15,16,16,17,17,18,18,19,19,20,20,21,21,22,22,23,23,26,26],"right_children":[2,-1,4,6,8,10,-1,12,14,16,18,20,22,24,26,28,30,32,34,36,38,40,42,44,-1,-1,46,-1,-1,-1,-1,-1,-1,-1,-1,-1,-1,-1,-1,-1,-1,-1,-1,-1,-1,-1,-1],"split_conditions":[4.62E2,-3.055558E-1,2.25478E5,1.026E3,6.8993E5,6.58E2,-2.9259065E-1,6.7097E5,1.79575E6,2.06631E5,6.78E2,5.08208E5,6.98E2,1.2118535E6,1.800592E6,1.8121E5,6.42E2,2.069E5,6.94E2,4.93434E5,5.73334E5,5.46E2,7.94E2,1.2062175E6,-3.009476E-1,2.9670683E-1,1.840958E6,-5.277675E-3,1.322523E-1,-2.8108317E-1,3.6449915E-1,-1.1701666E-1,4.7771704E-1,1.3553053E-1,-3.0440677E-2,-9.89779E-2,2.2051631E-1,-3.0845395E-1,-8.273691E-2,3.115566E-1,-1.8872732E-1,4.5680356E-1,-1.6635117E-1,-1.8817832E-1,5.747632E-1,-2.5531176E-1,2.6378827E-2],"split_indices":[0,0,1,0,1,0,0,1,1,1,0,1,0,1,1,1,0,1,0,1,1,0,0,1,0,0,1,0,0,0,0,0,0,0,0,0,0,0,0,0,0,0,0,0,0,0,0],"split_type":[0,0,0,0,0,0,0,0,0,0,0,0,0,0,0,0,0,0,0,0,0,0,0,0,0,0,0,0,0,0,0,0,0,0,0,0,0,0,0,0,0,0,0,0,0,0,0],"sum_hessian":[7.208625E3,2.2673712E2,6.981888E3,6.304274E3,6.776143E2,6.28484E3,1.9433636E1,5.1024536E2,1.6736897E2,4.1188257E3,2.1660146E3,4.8991464E2,2.0330742E1,1.5506258E2,1.2306398E1,4.0897847E3,2.9040953E1,3.5202182E2,1.8139927E3,3.7758276E2,1.12331856E2,8.1788645E0,1.2151876E1,1.1292364E2,4.213894E1,1.8152832E0,1.0491116E1,4.0270764E3,6.2708244E1,2.7846413E1,1.19454E0,3.4671667E2,5.3051596E0,1.657574E2,1.6482354E3,3.662361E2,1.1346655E1,4.7506844E1,6.482501E1,2.3409963E0,5.837868E0,9.160911E0,2.9909658E0,1.1122911E2,1.6945262E0,3.9412937E0,6.549822E0],"tree_param":{"num_deleted":"0","num_feature":"2","num_nodes":"47","size_leaf_vector":"0"}},{"base_weights":[-8.4154844E-2,-1.010972E0,-6.1184227E-2,-4.2242933E-2,-4.5551896E-1,-3.8811367E-2,-9.857882E-1,-7.0702606E-1,-2.530843E-1,-1.3823369E-2,-1.1949831E-1,-7.662619E-1,-1.7162805E-2,-1.9273885E-1,-9.545735E-1,-2.4703784E-1,-3.9696E-3,-3.6497232E-1,-9.494958E-2,-6.3554996E-1,-9.8155904E-1,8.650885E-1,-2.3746876E-1,-2.2584742E-1,1.8564377E0,-6.904428E-1,-1.958077E-1,1.2738548E-1,-2.4648817E-2,-4.5700085E-1,2.1803206E-1,1.22647844E-1,-1.21146806E-1,-7.297118E-1,1.071216E0,-1.0015785E0,-4.213275E-1,-7.9789037E-1,1.12955675E-1,-5.764644E-2,-4.646656E-1],"categories":[],"categories_nodes":[],"categories_segments":[],"categories_sizes":[],"default_left":[true,false,true,true,true,true,false,true,true,true,true,true,true,true,false,true,true,true,true,true,true,false,true,true,false,false,false,false,false,false,false,false,false,false,false,false,false,false,false,false,false],"id":11,"left_children":[1,-1,3,5,7,9,-1,11,13,15,17,19,21,23,-1,25,27,29,31,33,35,-1,37,39,-1,-1,-1,-1,-1,-1,-1,-1,-1,-1,-1,-1,-1,-1,-1,-1,-1],"loss_changes":[1.496746E2,0E0,5.125157E1,2.1172146E1,1.5833557E1,1.3160318E1,0E0,5.695404E0,7.2582636E0,1.1456095E1,9.26664E0,2.9959183E0,2.5513017E0,1.1487223E1,0E0,4.455529E0,1.2999341E1,7.6096783E0,8.02133E0,1.4100071E1,1.02371216E-1,0E0,2.1408582E0,6.45788E0,0E0,0E0,0E0,0E0,0E0,0E0,0E0,0E0,0E0,0E0,0E0,0E0,0E0,0E0,0E0,0E0,0E0],"parents":[2147483647,0,0,2,2,3,3,4,4,5,5,7,7,8,8,9,9,10,10,11,11,12,12,13,13,15,15,16,16,17,17,18,18,19,19,20,20,22,22,23,23],"right_children":[2,-1,4,6,8,10,-1,12,14,16,18,20,22,24,-1,26,28,30,32,34,36,-1,38,40,-1,-1,-1,-1,-1,-1,-1,-1,-1,-1,-1,-1,-1,-1,-1,-1,-1],"split_conditions":[4.62E2,-3.0329162E-1,4.38782E5,1.026E3,6.94E2,9.2014E4,-2.957365E-1,1.79575E6,1.2118535E6,4.772E3,5.66E2,7.32482E5,1.800592E6,1.2062175E6,-2.8637207E-1,1.68E3,1.3058E4,2.858E5,5.94E2,7.1787E5,6.82E2,2.5952658E-1,1.840958E6,7.94E2,5.569313E-1,-2.0713285E-1,-5.874231E-2,3.8215645E-2,-7.3946454E-3,-1.3710026E-1,6.540962E-2,3.6794353E-2,-3.6344044E-2,-2.1891354E-1,3.2136482E-1,-3.0047354E-1,-1.2639825E-1,-2.3936711E-1,3.3886705E-2,-1.7293932E-2,-1.3939968E-1],"split_indices":[0,0,1,0,0,1,0,1,1,1,0,1,1,1,0,1,1,1,0,1,0,0,1,0,0,0,0,0,0,0,0,0,0,0,0,0,0,0,0,0,0],"split_type":[0,0,0,0,0,0,0,0,0,0,0,0,0,0,0,0,0,0,0,0,0,0,0,0,0,0,0,0,0,0,0,0,0,0,0,0,0,0,0,0,0],"sum_hessian":[7.032326E3,1.6903659E2,6.8632896E3,6.549787E3,3.1350232E2,6.5270903E3,2.2697163E1,1.3869432E2,1.74808E2,4.9845825E3,1.5425076E3,1.2762493E2,1.1069393E1,1.6213513E2,1.2672879E1,2.0109473E2,4.783488E3,1.3897415E2,1.4035334E3,8.187107E1,4.575386E1,1.6270092E0,9.442384E0,1.604328E2,1.7023281E0,1.953541E1,1.8155931E2,6.499328E2,4.133555E3,1.2021421E2,1.8759945E1,1.5042265E2,1.2531107E3,7.813296E1,3.7381136E0,4.3414684E1,2.3391757E0,3.141449E0,6.3009353E0,9.48622E1,6.5570595E1],"tree_param":{"num_deleted":"0","num_feature":"2","num_nodes":"41","size_leaf_vector":"0"}},{"base_weights":[-6.2397067E-2,-1.0045394E0,-4.4717144E-2,-2.8265048E-2,-3.4104988E-1,-2.5814027E-2,-9.599938E-1,-2.787884E-1,-6.895547E-1,-2.716709E-2,1.3745109E0,-3.126763E-1,4.9836392E0,-8.476969E-1,-3.631524E-2,-1.32295145E-2,-1.22587174E-1,3.2850103E0,3.248473E-1,-2.7604184E-1,-9.6035254E-1,-9.983975E-1,-3.5633668E-1,7.6981395E-1,-2.2923361E-1,-1.6192073E-1,-3.1302555E-3,-1.738654E-1,1.4358813E-1,-4.6418688E-1,1.2562581E0,-3.0437222E-1,3.6106784E0,5.064157E-1,-8.8203347E-1,-7.4560165E-1,4.5404796E-2],"categories":[],"categories_nodes":[],"categories_segments":[],"categories_sizes":[],"default_left":[true,false,true,true,true,true,false,true,true,true,true,true,false,true,true,true,true,false,true,true,false,false,true,false,true,false,false,false,false,false,false,false,false,false,false,false,false],"id":12,"left_children":[1,-1,3,5,7,9,-1,11,13,15,17,19,-1,21,23,25,27,-1,29,31,-1,-1,33,-1,35,-1,-1,-1,-1,-1,-1,-1,-1,-1,-1,-1,-1],"loss_changes":[1.1476027E2,0E0,3.297855E1,1.4617271E1,7.5283585E0,1.2155615E1,0E0,5.5693E1,5.4705467E0,8.497389E0,1.1352882E1,6.913809E0,0E0,2.815672E0,1.9531114E0,8.374673E0,1.1140124E1,0E0,4.336307E0,3.2785454E1,0E0,0E0,5.711271E0,0E0,1.4503868E0,0E0,0E0,0E0,0E0,0E0,0E0,0E0,0E0,0E0,0E0,0E0,0E0],"parents":[2147483647,0,0,2,2,3,3,4,4,5,5,7,7,8,8,9,9,10,10,11,11,13,13,14,14,15,15,16,16,18,18,19,19,22,22,24,24],"right_children":[2,-1,4,6,8,10,-1,12,14,16,18,20,-1,22,24,26,28,-1,30,32,-1,-1,34,-1,36,-1,-1,-1,-1,-1,-1,-1,-1,-1,-1,-1,-1],"split_conditions":[4.62E2,-3.0136183E-1,3.56636E5,1.026E3,1.046376E6,3.51876E5,-2.8799814E-1,1.03812E6,1.79575E6,1.2489E5,5.98E2,9.126215E5,1.4950918E0,8.42E2,1.800592E6,6.882E3,8.5E2,9.8550314E-1,8.1E2,9.047755E5,-2.881058E-1,-2.9951927E-1,1.2133195E6,2.309442E-1,1.840958E6,-4.857622E-2,-9.390767E-4,-5.215962E-2,4.307644E-2,-1.3925608E-1,3.7687746E-1,-9.131167E-2,1.0832036E0,1.5192473E-1,-2.6461005E-1,-2.2368051E-1,1.3621439E-2],"split_indices":[0,0,1,0,1,1,0,1,1,1,0,1,0,0,1,1,0,0,0,1,0,0,1,0,1,0,0,0,0,0,0,0,0,0,0,0,0],"split_type":[0,0,0,0,0,0,0,0,0,0,0,0,0,0,0,0,0,0,0,0,0,0,0,0,0,0,0,0,0,0,0,0,0,0,0,0,0],"sum_hessian":[6.891308E3,1.2590969E2,6.7653984E3,6.4105845E3,3.5481384E2,6.39479E3,1.5794537E1,3.0256042E2,5.225342E1,6.3895967E3,5.19334E0,3.015591E2,1.0013353E0,4.1829315E1,1.0424107E1,5.5762397E3,8.133571E2,1.0863973E0,4.1069427E0,2.8676505E2,1.4794066E1,3.1221687E1,1.0607627E1,1.4354732E0,8.988633E0,3.536992E2,5.2225405E3,6.822665E2,1.310907E2,2.4949794E0,1.6119634E0,2.8560495E2,1.1600912E0,4.030163E0,6.5774636E0,2.525467E0,6.463166E0],"tree_param":{"num_deleted":"0","num_feature":"2","num_nodes":"37","size_leaf_vector":"0"}},{"base_weights":[-4.586152E-2,-9.98609E-1,-3.2384843E-2,-2.1596499E-2,-3.279831E-1,-1.9494325E-2,-9.480281E-1,-5.6650615E-1,-1.5484932E-1,2.01079E-2,-4.623309E-2,-6.268491E-1,-2.6562621E-3,-6.2658495E-1,1.3240444E-2,8.695748E-3,4.12312E-1,-3.2677445E-1,-3.9272983E-2,-4.4958988E-1,-9.0461034E-1,6.9252694E-1,-1.7113458E-1,-9.924139E-1,-6.254006E-2,1.5178069E0,-1.5046678E-1,4.650237E-2,-2.1010105E-1,9.546259E-1,-7.42367E-2,-4.6850648E-2,-4.8717317E-1,2.2013466E-1,-4.9405802E-2,-5.788193E-1,2.6043873E0,-9.883645E-1,-3.0644977E-1,-6.942345E-1,7.262285E-2,7.2774124E-1,-9.0611017E-1,2.1403582E0,-4.232703E-1,-2.4820319E-1,5.3891593E-1],"categories":[],"categories_nodes":[],"categories_segments":[],"categories_sizes":[],"default_left":[true,false,true,true,true,true,false,true,true,true,true,true,true,true,true,true,true,true,true,true,true,false,true,false,true,true,true,false,false,false,false,false,false,false,false,false,false,false,false,false,false,false,false,false,false,false,false],"id":13,"left_children":[1,-1,3,5,7,9,-1,11,13,15,17,19,21,23,25,27,29,31,33,35,37,-1,39,-1,41,43,45,-1,-1,-1,-1,-1,-1,-1,-1,-1,-1,-1,-1,-1,-1,-1,-1,-1,-1,-1,-1],"loss_changes":[8.722359E1,0E0,2.1365541E1,1.2576199E1,9.654737E0,6.8345456E0,0E0,3.3614635E0,1.0956472E1,1.1641564E1,7.5098734E0,3.9892998E0,1.355329E0,7.4268837E0,2.554328E1,2.0931286E1,1.9475887E1,4.158764E0,9.895554E0,2.3802322E1,1.3901424E0,0E0,1.236486E0,0E0,1.0889796E1,1.3202469E1,6.440427E0,0E0,0E0,0E0,0E0,0E0,0E0,0E0,0E0,0E0,0E0,0E0,0E0,0E0,0E0,0E0,0E0,0E0,0E0,0E0,0E0],"parents":[2147483647,0,0,2,2,3,3,4,4,5,5,7,7,8,8,9,9,10,10,11,11,12,12,13,13,14,14,15,15,16,16,17,17,18,18,19,19,20,20,22,22,24,24,25,25,26,26],"right_children":[2,-1,4,6,8,10,-1,12,14,16,18,20,22,24,26,28,30,32,34,36,38,-1,40,-1,42,44,46,-1,-1,-1,-1,-1,-1,-1,-1,-1,-1,-1,-1,-1,-1,-1,-1,-1,-1,-1,-1],"split_conditions":[4.62E2,-2.9958272E-1,4.63778E5,1.026E3,6.98E2,3.7646E4,-2.8440845E-1,1.79575E6,5.73334E5,8.9E2,5.18E2,7.22312E5,1.800592E6,7.98E2,6.01916E5,7.1E2,9.14E2,4.98E2,5.38E2,7.1787E5,6.58E2,2.0775808E-1,1.840958E6,-2.977242E-1,5.04622E5,7.98E2,9.38E2,1.3950712E-2,-6.303032E-2,2.8638777E-1,-2.2271011E-2,-1.4055195E-2,-1.4615196E-1,6.6040404E-2,-1.4821741E-2,-1.736458E-1,7.813162E-1,-2.9650936E-1,-9.1934934E-2,-2.0827036E-1,2.1786856E-2,2.1832238E-1,-2.7183306E-1,6.421075E-1,-1.269811E-1,-7.446096E-2,1.6167478E-1],"split_indices":[0,0,1,0,0,1,0,1,1,0,0,1,1,0,1,0,0,0,0,1,0,0,1,0,1,0,0,0,0,0,0,0,0,0,0,0,0,0,0,0,0,0,0,0,0,0,0],"split_type":[0,0,0,0,0,0,0,0,0,0,0,0,0,0,0,0,0,0,0,0,0,0,0,0,0,0,0,0,0,0,0,0,0,0,0,0,0,0,0,0,0,0,0,0,0,0,0],"sum_hessian":[6.7947017E3,9.37514E1,6.7009507E3,6.466035E3,2.349155E2,6.4524146E3,1.3620183E1,9.78447E1,1.3707079E2,2.6007485E3,3.8516663E3,8.8284775E1,9.55993E0,3.529354E1,1.0177725E2,2.5282063E3,7.2542274E1,9.213237E1,3.759534E3,5.549078E1,3.2793995E1,1.2581228E0,8.301807E0,2.0947758E1,1.4345781E1,9.175695E0,9.2601555E1,2.1563848E3,3.718214E2,3.3850266E1,3.869201E1,3.4032246E1,5.810013E1,1.4055281E2,3.618981E3,5.4015575E1,1.475205E0,2.819395E1,4.600044E0,2.0514245E0,6.2503824E0,7.477731E0,6.86805E0,6.869736E0,2.3059592E0,8.166374E1,1.0937816E1],"tree_param":{"num_deleted":"0","num_feature":"2","num_nodes":"47","size_leaf_vector":"0"}},{"base_weights":[-3.415728E-2,-9.926447E-1,-2.3945807E-2,-2.1196121E-2,-9.748724E-1,-1.5894225E-2,-3.816799E-1,-1.8524975E-2,7.146799E-1,-8.082686E-1,-2.6098606E-1,-1.45167485E-2,-3.9542857E-1,2.6825216E0,3.8276228E-1,-9.072981E-1,3.2113725E-1,-8.584372E-2,-5.371445E-1,-1.6238086E-2,1.0329828E0,-5.1780456E-1,3.6313465E0,-6.3068765E-1,6.4625376E-1,-2.726779E-1,2.415989E0,-6.82332E-1,-6.7690365E-2],"categories":[],"categories_nodes":[],"categories_segments":[],"categories_sizes":[],"default_left":[true,false,true,true,false,true,true,true,true,true,true,true,true,false,true,false,false,true,true,false,false,false,false,false,false,false,false,false,false],"id":14,"left_children":[1,-1,3,5,-1,7,9,11,13,15,17,19,21,-1,23,-1,-1,25,27,-1,-1,-1,-1,-1,-1,-1,-1,-1,-1],"loss_changes":[6.5748055E1,0E0,1.7367737E1,1.2669273E1,0E0,1.25768585E1,4.7360916E0,9.8356695E0,1.430927E1,2.6079807E0,3.6477342E0,1.1641177E1,3.564129E1,0E0,6.08406E0,0E0,0E0,2.3059326E1,1.9609671E0,0E0,0E0,0E0,0E0,0E0,0E0,0E0,0E0,0E0,0E0],"parents":[2147483647,0,0,2,2,3,3,5,5,6,6,7,7,8,8,9,9,10,10,11,11,12,12,14,14,17,17,18,18],"right_children":[2,-1,4,6,-1,8,10,12,14,16,18,20,22,-1,24,-1,-1,26,28,-1,-1,-1,-1,-1,-1,-1,-1,-1,-1],"split_conditions":[4.62E2,-2.9779342E-1,1.026E3,6.8993E5,-2.9246172E-1,6.63442E5,5.98E2,5.08208E5,5.42E2,1.840354E6,1.046704E6,4.93434E5,9.42E2,8.047565E-1,6.70942E5,-2.7218944E-1,9.634118E-2,1.038808E6,1.79575E6,-4.871426E-3,3.0989486E-1,-1.5534137E-1,1.089404E0,-1.892063E-1,1.9387613E-1,-8.1803374E-2,7.247967E-1,-2.046996E-1,-2.030711E-2],"split_indices":[0,0,0,1,0,1,0,1,0,1,1,1,0,0,1,0,0,1,1,0,0,0,0,0,0,0,0,0,0],"split_type":[0,0,0,0,0,0,0,0,0,0,0,0,0,0,0,0,0,0,0,0,0,0,0,0,0,0,0,0,0],"sum_hessian":[6.718935E3,6.981301E1,6.649122E3,6.6309707E3,1.8151726E1,6.5358867E3,9.508395E1,6.5134067E3,2.247971E1,1.97128E1,7.537115E1,6.4458955E3,6.751113E1,2.2223225E0,2.0257387E1,1.8304472E1,1.4083287E0,4.692299E1,2.8448162E1,6.4363037E3,9.59217E0,6.636565E1,1.1454809E0,3.8924677E0,1.636492E1,4.4491425E1,2.4315631E0,2.1381935E1,7.0662255E0],"tree_param":{"num_deleted":"0","num_feature":"2","num_nodes":"29","size_leaf_vector":"0"}},{"base_weights":[-2.5054345E-2,-9.861372E-1,-1.7355047E-2,-1.5266732E-2,-9.5264953E-1,-1.7927331E-3,-1.249664E-1,-5.97144E-1,-1.2964118E-4,-7.836356E-1,-8.3555415E-2,-2.6964486E-1,-8.9788765E-1,-1.7180761E-3,4.8313063E-1,-4.6222618E-1,-1.0350547E0,-1.1893865E-1,2.849779E-1,-6.560146E-1,1.3440524E0,-5.763964E-2,9.019151E-3,8.7578535E-1,-3.7384167E-1,-8.3726054E-1,-1.0352092E-1,-1.9315693E-1,-1.0755134E0,1.638994E-1,-1.8182902E-1,-1.6504945E-1,6.8946373E-1],"categories":[],"categories_nodes":[],"categories_segments":[],"categories_sizes":[],"default_left":[true,false,true,true,false,true,true,true,true,true,true,true,false,true,true,true,true,true,true,false,false,false,false,false,false,false,false,false,false,false,false,false,false],"id":15,"left_children":[1,-1,3,5,-1,7,9,11,13,15,17,19,-1,21,23,25,27,29,31,-1,-1,-1,-1,-1,-1,-1,-1,-1,-1,-1,-1,-1,-1],"loss_changes":[4.9361202E1,0E0,1.2917588E1,9.765981E0,0E0,5.8273363E0,1.9648617E1,1.3726888E0,4.5069146E0,2.966692E0,8.915716E0,6.6661534E0,0E0,3.5142553E0,6.799868E0,2.6736755E0,5.795746E-1,1.1096743E1,1.1028548E1,0E0,0E0,0E0,0E0,0E0,0E0,0E0,0E0,0E0,0E0,0E0,0E0,0E0,0E0],"parents":[2147483647,0,0,2,2,3,3,5,5,6,6,7,7,8,8,9,9,10,10,11,11,13,13,14,14,15,15,16,16,17,17,18,18],"right_children":[2,-1,4,6,-1,8,10,12,14,16,18,20,-1,22,24,26,28,30,32,-1,-1,-1,-1,-1,-1,-1,-1,-1,-1,-1,-1,-1,-1],"split_conditions":[4.62E2,-2.958412E-1,1.026E3,1.72375E5,-2.8579488E-1,1.68E3,1.79648E5,6.3E2,1.69168E5,6.7E2,9.02E2,6.1E2,-2.693663E-1,5.62E2,7.88E2,5.98E2,1.72748E5,2.03894E5,2.94968E5,-1.9680439E-1,4.0321574E-1,-1.7291892E-2,2.7057454E-3,2.627356E-1,-1.1215251E-1,-2.5117818E-1,-3.1056277E-2,-5.794708E-2,-3.22654E-1,4.9169824E-2,-5.4548707E-2,-4.9514838E-2,2.0683913E-1],"split_indices":[0,0,0,1,0,1,1,0,1,0,0,0,0,0,0,0,1,1,1,0,0,0,0,0,0,0,0,0,0,0,0,0,0],"split_type":[0,0,0,0,0,0,0,0,0,0,0,0,0,0,0,0,0,0,0,0,0,0,0,0,0,0,0,0,0,0,0,0,0],"sum_hessian":[6.6720493E3,5.201547E1,6.6200337E3,6.6063E3,1.3734145E1,5.88454E3,7.2175964E2,1.5395024E1,5.869145E3,4.1633163E1,6.8012646E2,8.277603E0,7.117421E0,5.85091E3,1.8234991E1,1.9518957E1,2.2114208E1,6.211651E2,5.8961388E1,7.1573744E0,1.1202288E0,9.41746E2,4.909164E3,1.2490183E1,5.7448087E0,8.89007E0,1.0628886E1,1.2787663E0,2.0835442E1,1.1270202E2,5.0846307E2,2.8189713E1,3.0771673E1],"tree_param":{"num_deleted":"0","num_feature":"2","num_nodes":"33","size_leaf_vector":"0"}},{"base_weights":[-1.8662438E-2,-9.785669E-1,-1.2869013E-2,-9.199294E-3,-4.1372544E-1,-1.0426795E-2,2.1269386E0,-9.387426E-1,-2.808841E-1,-9.12594E-3,-9.0510964E-1,4.013448E0,-6.3923174E-1,1.5875635E0,-4.2504218E-1,-7.901024E-3,-9.065429E-1,-6.382375E-1,3.399708E0,-9.1790766E-1,-2.7956387E-1,-8.582297E-3,1.2855326E0,1.0333241E0,-4.8890218E-1],"categories":[],"categories_nodes":[],"categories_segments":[],"categories_sizes":[],"default_left":[true,false,true,true,true,true,true,false,true,true,false,false,false,true,true,true,false,false,false,false,true,false,false,false,false],"id":16,"left_children":[1,-1,3,5,7,9,11,-1,13,15,-1,-1,-1,17,19,21,-1,-1,-1,-1,23,-1,-1,-1,-1],"loss_changes":[3.688909E1,0E0,9.700349E0,1.7165598E1,3.9085112E0,7.5978293E0,2.2185179E1,0E0,1.3918465E1,7.167468E0,0E0,0E0,0E0,1.7226883E1,3.0728807E0,5.7553606E0,0E0,0E0,0E0,0E0,1.0754158E1,0E0,0E0,0E0,0E0],"parents":[2147483647,0,0,2,2,3,3,4,4,5,5,6,6,8,8,9,9,13,13,14,14,15,15,20,20],"right_children":[2,-1,4,6,8,10,12,-1,14,16,-1,-1,-1,18,20,22,-1,-1,-1,-1,24,-1,-1,-1,-1],"split_conditions":[4.62E2,-2.9357007E-1,8.00708E5,7.92644E5,9.047755E5,1.026E3,8.18E2,-2.816228E-1,9.126215E5,7.34568E5,-2.715329E-1,1.2040346E0,-1.9176953E-1,8.64E2,1.03901E6,7.30244E5,-2.7196288E-1,-1.9147125E-1,1.0199125E0,-2.753723E-1,1.046376E6,-2.5746892E-3,3.8565978E-1,3.0999726E-1,-1.4667065E-1],"split_indices":[0,0,1,1,1,0,0,0,1,1,0,0,0,0,1,1,0,0,0,0,1,0,0,0,0],"split_type":[0,0,0,0,0,0,0,0,0,0,0,0,0,0,0,0,0,0,0,0,0,0,0,0,0],"sum_hessian":[6.634638E3,3.8795273E1,6.595843E3,6.5370215E3,5.882149E1,6.5342617E3,2.7597015E0,1.0652784E1,4.816871E1,6.5257837E3,8.478197E0,1.3726553E0,1.3870462E0,2.7330263E0,4.543568E1,6.517896E3,7.887697E0,1.5172433E0,1.215783E0,9.144722E0,3.629096E1,6.5154575E3,2.4384336E0,4.449471E0,3.1841488E1],"tree_param":{"num_deleted":"0","num_feature":"2","num_nodes":"25","size_leaf_vector":"0"}},{"base_weights":[-1.3696889E-2,-9.6937793E-1,-9.341424E-3,-8.098451E-3,-9.0310836E-1,-4.985992E-3,-2.593036E-1,-6.9906088E-3,4.8505914E-1,-9.130027E-1,-1.7483027E-1,-3.385459E-3,-2.778196E-1,1.6826092E0,3.2139558E-1,1.1043488E0,-2.490605E-1,-4.1468814E-3,1.2028648E0,-6.059256E-1,1.7591484E-1,2.102736E-2,9.039818E-1,2.0017965E0,-5.826595E-1,-5.767821E-1,-7.663485E-2],"categories":[],"categories_nodes":[],"categories_segments":[],"categories_sizes":[],"default_left":[true,false,true,true,false,true,true,true,true,false,true,true,true,false,true,true,true,false,false,false,false,false,false,false,false,false,false],"id":17,"left_children":[1,-1,3,5,-1,7,9,11,13,-1,15,17,19,-1,21,23,25,-1,-1,-1,-1,-1,-1,-1,-1,-1,-1],"loss_changes":[2.7507378E1,0E0,7.3044496E0,5.1383367E0,0E0,6.3829E0,4.2817645E0,6.3149056E0,4.647468E0,0E0,7.1557055E0,5.8690953E0,1.27554455E1,0E0,4.2725735E0,7.462198E0,3.8720493E0,0E0,0E0,0E0,0E0,0E0,0E0,0E0,0E0,0E0,0E0],"parents":[2147483647,0,0,2,2,3,3,5,5,6,6,7,7,8,8,10,10,11,11,12,12,14,14,15,15,16,16],"right_children":[2,-1,4,6,-1,8,10,12,14,-1,16,18,20,-1,22,24,26,-1,-1,-1,-1,-1,-1,-1,-1,-1,-1],"split_conditions":[4.62E2,-2.908134E-1,1.026E3,6.8993E5,-2.7093253E-1,6.63442E5,7.17954E5,4.63778E5,6.66796E5,-2.7390084E-1,7.22234E5,4.58452E5,7.46E2,5.047828E-1,7.42E2,6.7E2,6.54E2,-1.2440644E-3,3.6085945E-1,-1.8177769E-1,5.2774455E-2,6.308208E-3,2.7119455E-1,6.0053897E-1,-1.7479785E-1,-1.7303464E-1,-2.2990454E-2],"split_indices":[0,0,0,1,0,1,1,1,1,0,1,1,0,0,0,0,0,0,0,0,0,0,0,0,0,0,0],"split_type":[0,0,0,0,0,0,0,0,0,0,0,0,0,0,0,0,0,0,0,0,0,0,0,0,0,0,0],"sum_hessian":[6.609656E3,2.8981298E1,6.5806743E3,6.572543E3,8.131453E0,6.4931123E3,7.9430534E1,6.467641E3,2.5471302E1,7.967288E0,7.146325E1,6.3836772E3,8.396405E1,1.9466299E0,2.3524673E1,3.1584046E0,6.830484E1,6.380646E3,3.031098E0,4.853316E1,3.5430885E1,1.6205553E1,7.3191204E0,1.9398534E0,1.2185512E0,2.2739603E1,4.556524E1],"tree_param":{"num_deleted":"0","num_feature":"2","num_nodes":"27","size_leaf_vector":"0"}},{"base_weights":[-1.0102472E-2,-9.57965E-1,-6.826153E-3,-5.87121E-3,-8.7144136E-1,3.457337E-2,-2.3435699E-2,-4.7950663E-2,1.18054554E-1,-1.2150387E-1,9.2632754E-4,3.31597E-2,-3.0673185E-1,2.1906477E-1,4.05502E-2,-1.6531803E-1,1.20257355E-1,1.2991817E-1,-2.2120096E-2,1.0236178E-1,-2.2646005E-1,-6.72692E-1,-2.4975741E-1,1.2351966E-1,6.1692744E-1,2.6723485E-2,1.0508533E0,-6.387568E-2,-2.5397754E-1,6.5618914E-1,-2.556969E-1,-4.9455903E-2,2.4608742E-1,-1.371923E-1,-3.332203E-3],"categories":[],"categories_nodes":[],"categories_segments":[],"categories_sizes":[],"default_left":[true,false,true,true,false,true,true,true,true,true,true,true,true,true,true,true,true,true,true,false,false,false,false,false,false,false,false,false,false,false,false,false,false,false,false],"id":18,"left_children":[1,-1,3,5,-1,7,9,11,13,15,17,19,21,23,25,27,29,31,33,-1,-1,-1,-1,-1,-1,-1,-1,-1,-1,-1,-1,-1,-1,-1,-1],"loss_changes":[2.0464071E1,0E0,5.419483E0,4.6636477E0,0E0,1.3700327E1,1.0935066E1,2.1007648E1,7.729664E0,9.667162E0,1.09046755E1,1.3723213E1,4.8114853E0,1.6229223E1,7.8022833E0,6.9220543E0,2.8438553E1,1.1598547E1,6.727909E0,0E0,0E0,0E0,0E0,0E0,0E0,0E0,0E0,0E0,0E0,0E0,0E0,0E0,0E0,0E0,0E0],"parents":[2147483647,0,0,2,2,3,3,5,5,6,6,7,7,8,8,9,9,10,10,11,11,12,12,13,13,14,14,15,15,16,16,17,17,18,18],"right_children":[2,-1,4,6,-1,8,10,12,14,16,18,20,22,24,26,28,30,32,34,-1,-1,-1,-1,-1,-1,-1,-1,-1,-1,-1,-1,-1,-1,-1,-1],"split_conditions":[4.62E2,-2.8738952E-1,1.026E3,5.86E2,-2.614324E-1,5.62E2,6.22E2,5.5E2,3.5108E4,1.48348E5,1.735E4,6.598E4,1.2232E4,2.8524E4,3.73222E5,6.02E2,1.92106E5,8.164E3,2.9846E4,3.0708537E-2,-6.793802E-2,-2.018076E-1,-7.4927226E-2,3.70559E-2,1.8507823E-1,8.017046E-3,3.15256E-1,-1.9162705E-2,-7.6193266E-2,1.9685675E-1,-7.670907E-2,-1.4836771E-2,7.382623E-2,-4.115769E-2,-9.996609E-4],"split_indices":[0,0,0,0,0,0,0,0,1,1,1,1,1,1,1,0,1,1,1,0,0,0,0,0,0,0,0,0,0,0,0,0,0,0,0],"split_type":[0,0,0,0,0,0,0,0,0,0,0,0,0,0,0,0,0,0,0,0,0,0,0,0,0,0,0,0,0,0,0,0,0,0,0],"sum_hessian":[6.5907275E3,2.169887E1,6.5690283E3,6.562787E3,6.2416234E0,1.9868444E3,4.5759424E3,9.993641E2,9.874803E2,9.0975995E2,3.6661826E3,7.6154364E2,2.3782045E2,4.2793402E2,5.595462E2,7.704485E2,1.3931143E2,5.550282E2,3.1111543E3,6.0175146E2,1.5979214E2,3.0581488E1,2.0723897E2,3.4612418E2,8.180987E1,5.530044E2,6.5418057E0,3.601234E2,4.103251E2,5.7128296E1,8.218314E1,2.1839073E2,3.3663745E2,4.3578058E2,2.6753738E3],"tree_param":{"num_deleted":"0","num_feature":"2","num_nodes":"35","size_leaf_vector":"0"}},{"base_weights":[-7.8265825E-3,-9.436771E-1,-5.355421E-3,5.5043967E-3,-7.0806995E-2,-9.676308E-2,1.244282E-2,-9.963327E-2,6.4385496E-2,-4.6074104E-2,-6.0762584E-1,1.4550674E-1,-9.870249E-4,-1.9648546E-1,-5.535374E-2,2.538876E-1,-3.393338E-1,-1.6680647E-1,8.765176E-2,-7.006411E-1,-6.458831E-2,-1.7874816E-1,2.2110537E-1,1.5945452E-1,-1.3095782E-2,-1.1771433E-1,-6.2114686E-1,4.7009226E-2,-2.3359573E-1,2.4893722E-2,1.8782798E0,-9.1373503E-1,-1.522024E-1,-5.526207E-2,-6.028223E-1,3.8810748E-1,-1.3230547E-1,-2.813757E-1,-7.611832E-1,4.3718544E-1,-6.4245737E-1,-1.7797334E-2,-8.5869867E-1,2.759276E-1,-1.2475396E-1,-4.5309454E-2,2.8381684E-1,-9.6886985E-2,5.930154E-3,-2.2552729E-1,3.2933024E-1,-4.1038734E-1,-1.0040817E0,9.1361123E-1,-9.352356E-4,-4.5258144E-1,1.1148907E-1,8.952368E-1,-9.701226E-2,3.0128086E0,4.3989313E-1,-5.3351615E-2,-9.830514E-1,3.0488946E0,-3.2471183E-1],"categories":[],"categories_nodes":[],"categories_segments":[],"categories_sizes":[],"default_left":[true,false,true,true,true,true,true,true,true,true,true,true,true,true,true,true,true,true,true,true,true,true,true,true,true,true,true,true,true,true,true,true,true,false,false,false,false,false,false,false,false,false,false,false,false,false,false,false,false,false,false,false,false,false,false,false,false,false,false,false,false,false,false,false,false],"id":19,"left_children":[1,-1,3,5,7,9,11,13,15,17,19,21,23,25,27,29,31,33,35,37,39,41,43,45,47,49,51,53,55,57,59,61,63,-1,-1,-1,-1,-1,-1,-1,-1,-1,-1,-1,-1,-1,-1,-1,-1,-1,-1,-1,-1,-1,-1,-1,-1,-1,-1,-1,-1,-1,-1,-1,-1],"loss_changes":[1.5188145E1,0E0,4.658456E0,3.9902015E0,3.6411343E0,9.22402E0,9.40953E0,3.2876735E0,1.2673227E1,5.2798295E0,1.5796223E0,1.1872343E1,9.295555E0,7.986088E0,9.66687E0,4.181542E1,5.5561767E0,8.31882E0,1.0320592E1,4.8038387E-1,1.9643395E0,1.0033069E1,7.465046E0,8.563246E0,7.093038E0,9.928768E0,2.611496E0,1.4002735E1,1.4652218E1,1.0659573E1,2.1343903E1,7.121248E-1,2.3721933E1,0E0,0E0,0E0,0E0,0E0,0E0,0E0,0E0,0E0,0E0,0E0,0E0,0E0,0E0,0E0,0E0,0E0,0E0,0E0,0E0,0E0,0E0,0E0,0E0,0E0,0E0,0E0,0E0,0E0,0E0,0E0,0E0],"parents":[2147483647,0,0,2,2,3,3,4,4,5,5,6,6,7,7,8,8,9,9,10,10,11,11,12,12,13,13,14,14,15,15,16,16,17,17,18,18,19,19,20,20,21,21,22,22,23,23,24,24,25,25,26,26,27,27,28,28,29,29,30,30,31,31,32,32],"right_children":[2,-1,4,6,8,10,12,14,16,18,20,22,24,26,28,30,32,34,36,38,40,42,44,46,48,50,52,54,56,58,60,62,64,-1,-1,-1,-1,-1,-1,-1,-1,-1,-1,-1,-1,-1,-1,-1,-1,-1,-1,-1,-1,-1,-1,-1,-1,-1,-1,-1,-1,-1,-1,-1,-1],"split_conditions":[4.62E2,-2.8310314E-1,1.35986E5,7.02E3,8.54E2,7.9E2,1.3058E4,1.8121E5,3.49758E5,6.06E2,9.22E2,5.58E2,5.34E2,1.72918E5,7.22E2,2.94968E5,4.0272E5,5.86E2,6.46E2,8.02E2,5.66E3,5.46E2,7.7E2,5.18E2,2.5494E4,7.7E2,7.14E2,1.85862E5,4.23264E5,8.66E2,3.19738E5,3.53142E5,4.09426E5,-1.6578622E-2,-1.8084669E-1,1.1643225E-1,-3.9691642E-2,-8.441272E-2,-2.2835498E-1,1.3115564E-1,-1.9273722E-1,-5.3392006E-3,-2.576096E-1,8.277828E-2,-3.742619E-2,-1.3592836E-2,8.5145056E-2,-2.9066097E-2,1.7790463E-3,-6.7658186E-2,9.879907E-2,-1.231162E-1,-3.0122453E-1,2.7408338E-1,-2.8057068E-4,-1.3577443E-1,3.344672E-2,2.6857105E-1,-2.910368E-2,9.038426E-1,1.3196795E-1,-1.6005484E-2,-2.9491544E-1,9.1466844E-1,-9.7413555E-2],"split_indices":[0,0,1,1,0,0,1,1,1,0,0,0,0,1,0,1,1,0,0,0,1,0,0,0,1,0,0,1,1,0,1,1,1,0,0,0,0,0,0,0,0,0,0,0,0,0,0,0,0,0,0,0,0,0,0,0,0,0,0,0,0,0,0,0,0],"split_type":[0,0,0,0,0,0,0,0,0,0,0,0,0,0,0,0,0,0,0,0,0,0,0,0,0,0,0,0,0,0,0,0,0,0,0,0,0,0,0,0,0,0,0,0,0,0,0,0,0,0,0,0,0,0,0,0,0,0,0,0,0,0,0,0,0],"sum_hessian":[6.568641E3,1.629608E1,6.552345E3,5.6206714E3,9.316739E2,3.5628818E2,5.2643833E3,7.681491E2,1.6352475E2,3.2511926E2,3.116889E1,4.8171176E2,4.7826714E3,2.3992531E2,5.282238E2,1.1154002E2,5.1984726E1,1.7073047E2,1.543888E2,2.6363022E1,4.8058677E0,9.0817245E1,3.908945E2,3.3477115E2,4.4479004E3,2.03462E2,3.6463303E1,3.359987E2,1.9222513E2,9.864864E1,1.2891376E1,1.1820073E1,4.0164654E1,1.368479E2,3.3882576E1,6.493071E1,8.945809E1,4.0391016E0,2.2323921E1,2.7026029E0,2.1032648E0,7.4264336E1,1.655291E1,3.375859E2,5.33086E1,1.2673546E2,2.0803569E2,8.223104E2,3.6255898E3,1.6432706E2,3.9134953E1,2.48552E1,1.1608103E1,1.6667944E1,3.1933075E2,1.1740815E2,7.4816986E1,1.1340428E1,8.730822E1,6.594994E0,6.296382E0,1.0132219E0,1.0806851E1,1.201206E0,3.8963448E1],"tree_param":{"num_deleted":"0","num_feature":"2","num_nodes":"65","size_leaf_vector":"0"}},{"base_weights":[-6.7174956E-3,-9.2584723E-1,-4.847961E-3,-4.115514E-3,-8.3338726E-1,-3.8857386E-1,-2.6819934E-3,-2.063323E-1,-5.876614E-1,2.95958E-3,-9.278756E-2,-4.7365683E-1,4.2125216E-1,-8.704776E-1,-1.1526494E-1,3.4804185E-4,7.3245245E-1,-7.29872E-1,-4.772902E-2,-6.1099863E-1,-1.3036138E-1,8.2109976E-1,-2.5872046E-1,1.8109621E-1,-5.949286E-1,2.6583672E-3,-3.1794193E-1,2.1809466E0,8.5086524E-2,-9.8368794E-1,-1.1186011E-1,3.999296E-1,-9.5707886E-2],"categories":[],"categories_nodes":[],"categories_segments":[],"categories_sizes":[],"default_left":[true,false,true,true,false,true,true,true,true,true,true,true,true,false,true,true,true,true,true,false,false,false,false,false,false,false,false,false,false,false,false,false,false],"id":20,"left_children":[1,-1,3,5,-1,7,9,11,13,15,17,19,21,-1,23,25,27,29,31,-1,-1,-1,-1,-1,-1,-1,-1,-1,-1,-1,-1,-1,-1],"loss_changes":[1.124828E1,0E0,3.9632058E0,3.5986855E0,0E0,7.5882554E-1,3.3086822E0,2.5827153E0,1.3761508E0,1.1669967E1,1.0974236E1,4.122331E-1,1.5100386E0,0E0,8.5990685E-1,4.4901285E0,2.030444E1,3.8526802E0,7.7542486E0,0E0,0E0,0E0,0E0,0E0,0E0,0E0,0E0,0E0,0E0,0E0,0E0,0E0,0E0],"parents":[2147483647,0,0,2,2,3,3,5,5,6,6,7,7,8,8,9,9,10,10,11,11,12,12,14,14,15,15,16,16,17,17,18,18],"right_children":[2,-1,4,6,-1,8,10,12,14,16,18,20,22,-1,24,26,28,30,32,-1,-1,-1,-1,-1,-1,-1,-1,-1,-1,-1,-1,-1,-1],"split_conditions":[4.62E2,-2.777542E-1,1.026E3,2.102E3,-2.5001618E-1,6.3E2,2.5471E5,5.98E2,1.782E3,2.47162E5,2.72876E5,1.726E3,1.712E3,-2.611433E-1,1.966E3,2.25478E5,5.9E2,8.06E2,3.00244E5,-1.832996E-1,-3.9108414E-2,2.4632993E-1,-7.761614E-2,5.4328866E-2,-1.784786E-1,7.975102E-4,-9.5382586E-2,6.54284E-1,2.552596E-2,-2.9510638E-1,-3.3558033E-2,1.1997889E-1,-2.8712368E-2],"split_indices":[0,0,0,1,0,0,1,0,1,1,1,1,1,0,1,1,0,0,1,0,0,0,0,0,0,0,0,0,0,0,0,0,0],"split_type":[0,0,0,0,0,0,0,0,0,0,0,0,0,0,0,0,0,0,0,0,0,0,0,0,0,0,0,0,0,0,0,0,0],"sum_hessian":[6.547607E3,1.2287744E1,6.5353193E3,6.5305513E3,4.768181E0,2.325662E1,6.5072944E3,1.3205189E1,1.0051433E1,6.1247847E3,3.8250995E2,9.432578E0,3.7726107E0,5.760205E0,4.291228E0,6.103933E3,2.0851215E1,2.4262545E1,3.582474E2,6.1802487E0,3.2523289E0,2.2449522E0,1.5276586E0,3.0371625E0,1.254065E0,6.060931E3,4.3001953E1,5.708771E0,1.5142444E1,1.6779535E1,7.4830103E0,3.396909E1,3.2427832E2],"tree_param":{"num_deleted":"0","num_feature":"2","num_nodes":"33","size_leaf_vector":"0"}},{"base_weights":[-5.2857893E-3,-7.519349E-1,-3.560947E-3,-9.038534E-1,-3.4856138E-1,-2.9876747E-3,-7.9350334E-1,-8.9460984E-2,-6.3387674E-1,-1.5364522E-1,-3.8164653E-4,-3.0421436E-1,1.09682344E-1,1.5489888E-1,-6.017472E-1,1.1309587E-1,-6.4763403E-3,-1.6229887E-1,3.0669975E-1,-1.3229461E0,-3.8647437E-1,-8.941819E-2,1.8565099E-1,-1.1234203E-1,4.0688384E-3,7.4088596E-2,-6.228559E-1,6.2120926E-1,-2.0001571E-1,2.3659164E-1,-5.3929585E-1,-1.11193685E-2,-4.952484E-1,4.0187243E-1,6.457715E-2,5.835122E-1,-1.2499238E-1,7.824407E-2,-1.2276442E-2],"categories":[],"categories_nodes":[],"categories_segments":[],"categories_sizes":[],"default_left":[true,true,true,false,true,true,false,true,false,true,true,false,false,true,true,true,true,true,true,false,true,true,true,true,true,false,false,false,false,false,false,false,false,false,false,false,false,false,false],"id":21,"left_children":[1,3,5,-1,7,9,-1,11,-1,13,15,-1,-1,17,19,21,23,25,27,-1,29,31,33,35,37,-1,-1,-1,-1,-1,-1,-1,-1,-1,-1,-1,-1,-1,-1],"loss_changes":[8.415878E0,6.07913E-1,2.9515104E0,0E0,3.682341E-1,2.55946E0,0E0,2.119969E-1,0E0,1.5418647E1,4.433449E0,0E0,0E0,3.2489448E0,6.53808E0,4.817527E0,6.791938E0,2.458567E0,7.340655E0,0E0,3.5916486E0,2.7545328E0,6.2799997E0,4.9242992E0,6.7097473E0,0E0,0E0,0E0,0E0,0E0,0E0,0E0,0E0,0E0,0E0,0E0,0E0,0E0,0E0],"parents":[2147483647,0,0,1,1,2,2,4,4,5,5,7,7,9,9,10,10,13,13,14,14,15,15,16,16,17,17,18,18,20,20,21,21,22,22,23,23,24,24],"right_children":[2,4,6,-1,8,10,-1,12,-1,14,16,-1,-1,18,20,22,24,26,28,-1,30,32,34,36,38,-1,-1,-1,-1,-1,-1,-1,-1,-1,-1,-1,-1,-1,-1],"split_conditions":[4.7E2,4.62E2,1.026E3,-2.7115604E-1,7.4988E4,5.1E2,-2.3805101E-1,2.7994E4,-1.9016303E-1,4.98E2,5.34E2,-9.126431E-2,3.2904703E-2,2.0832E4,1.3704E4,1.795E4,5.62E2,1.4112E4,6.223E4,-3.9688385E-1,3.0666E4,1.5266E4,3.6166E4,3.332E3,5.86E2,2.222658E-2,-1.8685678E-1,1.8636279E-1,-6.0004715E-2,7.0977494E-2,-1.6178876E-1,-3.3358107E-3,-1.4857453E-1,1.20561734E-1,1.9373145E-2,1.7505366E-1,-3.7497714E-2,2.3473222E-2,-3.6829326E-3],"split_indices":[0,0,0,0,1,0,0,1,0,0,0,0,0,1,1,1,0,1,1,0,1,1,1,1,0,0,0,0,0,0,0,0,0,0,0,0,0,0,0],"split_type":[0,0,0,0,0,0,0,0,0,0,0,0,0,0,0,0,0,0,0,0,0,0,0,0,0,0,0,0,0,0,0,0,0,0,0,0,0,0,0],"sum_hessian":[6.535898E3,1.4061397E1,6.5218364E3,9.313144E0,4.7482524E0,6.5181104E3,3.7265038E0,3.1768472E0,1.5714052E0,1.09845665E2,6.4082646E3,1.2746584E0,1.9021888E0,6.544046E1,4.440521E1,3.2573965E2,6.082525E3,2.1158743E1,4.4281715E1,9.0248995E0,3.538031E1,8.5859184E1,2.3988046E2,5.501163E2,5.5324087E3,1.4536704E1,6.6220384E0,2.7183462E1,1.7098255E1,6.860662E0,2.8519648E1,7.2834305E1,1.302488E1,8.52738E1,1.5460666E2,9.016597E0,5.410997E2,9.9830273E2,4.534106E3],"tree_param":{"num_deleted":"0","num_feature":"2","num_nodes":"39","size_leaf_vector":"0"}},{"base_weights":[-4.117369E-3,-8.772135E-1,-3.0312133E-3,-5.557926E-1,-2.2999488E-3,-2.6766792E-1,-7.819365E-1,-6.645477E-4,-2.181655E-1,-5.4327655E-1,4.2900285E-1,-1.5516852E-3,1.0569844E0,-3.7035388E-1,3.9690027E-1,-1.19678676E-1,-6.78981E-1,-6.69665E-4,-8.61888E-1,-5.5041105E-1,1.5995207E0,-5.69452E-1,2.9068324E-1,5.467383E-1,-4.0608513E-1,-1.2362709E-3,8.902921E-1,2.4983096E0,-5.585994E-1,-9.37635E-1,-2.9005888E-1,9.280736E-1,-2.3797059E-1,3.2079345E-1,8.6701393E-1],"categories":[],"categories_nodes":[],"categories_segments":[],"categories_sizes":[],"default_left":[true,false,true,true,true,true,false,true,true,true,false,true,true,true,true,false,false,true,false,false,true,true,true,true,false,false,false,false,false,false,false,false,false,false,false],"id":22,"left_children":[1,-1,3,5,7,9,-1,11,13,15,-1,17,19,21,23,-1,-1,25,-1,-1,27,29,31,33,-1,-1,-1,-1,-1,-1,-1,-1,-1,-1,-1],"loss_changes":[6.1855555E0,0E0,2.6335368E0,3.5156298E-1,2.2983232E0,1.2517983E0,0E0,6.0655518E0,4.72915E0,1.6264069E-1,0E0,4.900259E0,5.6050982E0,5.3982773E0,1.4483577E0,0E0,0E0,3.2586122E0,0E0,0E0,9.749102E0,2.9060192E0,3.5450256E0,3.7429476E-1,0E0,0E0,0E0,0E0,0E0,0E0,0E0,0E0,0E0,0E0,0E0],"parents":[2147483647,0,0,2,2,3,3,4,4,5,5,7,7,8,8,9,9,11,11,12,12,13,13,14,14,17,17,20,20,21,21,22,22,23,23],"right_children":[2,-1,4,6,8,10,-1,12,14,16,-1,18,20,22,24,-1,-1,26,-1,-1,28,30,32,34,-1,-1,-1,-1,-1,-1,-1,-1,-1,-1,-1],"split_conditions":[4.62E2,-2.6316404E-1,1.082E3,6.26E2,8.00708E5,6.06E2,-2.3458096E-1,7.92644E5,1.79575E6,5.46E2,1.2870087E-1,7.34568E5,7.08E2,8.9E2,1.861624E6,-3.5903603E-2,-2.0369431E-1,7.30244E5,-2.585664E-1,-1.6512331E-1,8.18E2,1.03901E6,9.12873E5,1.853692E6,-1.21825546E-1,-3.708813E-4,2.6708764E-1,7.494929E-1,-1.6757983E-1,-2.812905E-1,-8.701767E-2,2.784221E-1,-7.139118E-2,9.623804E-2,2.6010418E-1],"split_indices":[0,0,1,0,1,0,0,1,1,0,0,1,0,0,1,0,0,1,0,0,0,1,1,1,0,0,0,0,0,0,0,0,0,0,0],"split_type":[0,0,0,0,0,0,0,0,0,0,0,0,0,0,0,0,0,0,0,0,0,0,0,0,0,0,0,0,0,0,0,0,0,0,0],"sum_hessian":[6.5244595E3,7.1043005E0,6.517355E3,7.6077757E0,6.509747E3,4.3056564E0,3.3021195E0,6.4617954E3,4.7951595E1,3.2429147E0,1.0627419E0,6.457378E3,4.417803E0,3.875912E1,9.192473E0,1.2434437E0,1.9994708E0,6.451764E3,5.6135955E0,1.1111717E0,3.3066308E0,2.9893908E1,8.865214E0,8.015828E0,1.1766453E0,6.4486616E3,3.1024048E0,2.2231336E0,1.0834975E0,1.188109E1,1.8012817E1,3.6767128E0,5.1885014E0,5.8737154E0,2.1421132E0],"tree_param":{"num_deleted":"0","num_feature":"2","num_nodes":"35","size_leaf_vector":"0"}},{"base_weights":[-3.128409E-3,-6.539177E-1,-2.0360665E-3,-1.5176773E-1,-7.8406733E-1,-1.5822082E-3,-7.504263E-1,-5.638423E-1,2.6726377E-1,-1.8058294E-1,2.2816024E-4,-6.377483E-2,-7.1595377E-1,7.5647E-1,-5.0035224E-4,-1.65753E-1,1.133541E0,-8.260079E-1,-1.5030722E-1,-2.1217501E-1,9.882515E-1,-9.9230343E-1,5.9566602E-5,2.009281E-1,-2.5351664E-1,-9.485492E-1,-3.6993736E-1,5.217227E-2,-6.974594E-3],"categories":[],"categories_nodes":[],"categories_segments":[],"categories_sizes":[],"default_left":[true,true,true,true,false,true,false,false,false,true,true,true,true,true,true,true,false,true,false,false,false,false,true,false,false,false,false,false,false],"id":23,"left_children":[1,3,5,7,-1,9,-1,-1,-1,11,13,15,17,19,21,23,-1,25,-1,-1,-1,-1,27,-1,-1,-1,-1,-1,-1],"loss_changes":[4.6317816E0,5.945406E-1,2.2091618E0,7.528576E-1,0E0,2.1078818E0,0E0,0E0,0E0,4.0271482E0,3.5486E0,6.8497777E0,5.959039E-1,1.6014309E0,3.5737162E0,1.6970422E0,0E0,1.7781925E-1,0E0,0E0,0E0,0E0,2.3583467E0,0E0,0E0,0E0,0E0,0E0,0E0],"parents":[2147483647,0,0,1,1,2,2,3,3,5,5,9,9,10,10,11,11,12,12,13,13,14,14,15,15,17,17,22,22],"right_children":[2,4,6,8,-1,10,-1,-1,-1,12,14,16,18,20,22,24,-1,26,-1,-1,-1,-1,28,-1,-1,-1,-1,-1,-1],"split_conditions":[4.7E2,3.4852E4,1.026E3,2.2442E4,-2.3522021E-1,3.146E3,-2.2512789E-1,-1.6915269E-1,8.017913E-2,2.898E3,3.198E3,2.866E3,7.48E2,5.38E2,3.236E3,5.54E2,3.4006232E-1,3.064E3,-4.509217E-2,-6.365251E-2,2.9647547E-1,-2.9769105E-1,1.312E4,6.0278434E-2,-7.6055E-2,-2.8456476E-1,-1.1098121E-1,1.5651682E-2,-2.0923784E-3],"split_indices":[0,1,0,1,0,1,0,0,0,1,1,1,0,0,1,0,0,1,0,0,0,0,1,0,0,0,0,0,0],"split_type":[0,0,0,0,0,0,0,0,0,0,0,0,0,0,0,0,0,0,0,0,0,0,0,0,0,0,0,0,0],"sum_hessian":[6.5163906E3,9.9179125E0,6.5064727E3,2.487318E0,7.430594E0,6.503531E3,2.9419272E0,1.0798308E0,1.4074873E0,6.412778E1,6.4394033E3,5.3560898E1,1.0566884E1,5.1989408E0,6.434204E3,5.015098E1,3.409913E0,8.460491E0,2.1063924E0,1.020158E0,4.1787825E0,2.6309812E0,6.431573E3,9.436281E0,4.0714703E1,5.817548E0,2.6429431E0,7.6412476E2,5.667448E3],"tree_param":{"num_deleted":"0","num_feature":"2","num_nodes":"29","size_leaf_vector":"0"}},{"base_weights":[-2.4159465E-3,-8.1492174E-1,-1.7419081E-3,-1.1517333E-1,1.2066358E-3,8.3442606E-2,-2.6145795E-1,1.1043052E-1,-3.7639278E-3,-3.8800043E-1,1.579337E-1,-5.965901E-1,-1.3299683E-1,-2.872624E-2,2.1088547E-1,-7.990541E-2,3.7192167E-3,2.5747787E-2,-9.5110554E-1,1.1160119E0,8.416084E-2,-1.048835E0,-4.45044E-1,1.0337938E-1,-2.9899004E-1,6.046021E-2,-6.7172545E-1,4.7780356E-1,1.1450721E-1,-2.3164299E-1,-2.5675606E-2,6.3374504E-2,-8.232801E-3,-3.392479E-1,4.6493348E-1,4.2314076E-1,1.363411E0,-4.3293414E-1,1.893225E-1,2.97493E-1,-5.1284903E-1,-3.972948E-1,6.0744137E-1,-9.3460476E-1,-1.977044E-1,-7.1571484E-2,4.01912E-1,-1.2868549E0,-2.3864749E-1,7.928077E-1,2.0081596E-1,-9.0554273E-1,1.8707354E-1,-1.0530244E-1,-6.644944E-1,4.3126315E-1,-1.342853E-1,5.5944644E-2,8.841369E-1,-1.3319686E-1,4.70484E-3],"categories":[],"categories_nodes":[],"categories_segments":[],"categories_sizes":[],"default_left":[true,false,true,true,true,true,true,true,true,true,true,true,true,true,true,true,true,true,false,true,true,false,true,true,true,true,true,true,true,true,true,true,true,false,false,false,false,false,false,false,false,false,false,false,false,false,false,false,false,false,false,false,false,false,false,false,false,false,false,false,false],"id":24,"left_children":[1,-1,3,5,7,9,11,13,15,17,19,21,23,25,27,29,31,33,-1,35,37,-1,39,41,43,45,47,49,51,53,55,57,59,-1,-1,-1,-1,-1,-1,-1,-1,-1,-1,-1,-1,-1,-1,-1,-1,-1,-1,-1,-1,-1,-1,-1,-1,-1,-1,-1,-1],"loss_changes":[3.5631914E0,0E0,2.175588E0,4.810073E0,3.442758E0,2.542626E0,4.016829E0,3.864562E0,3.4563327E0,2.3380647E0,4.268922E0,1.3204994E0,2.780158E0,6.7272315E0,4.0721636E0,4.460779E0,3.93897E0,1.2314051E0,0E0,1.6559315E-1,3.2573998E0,0E0,1.2234507E0,7.72385E0,2.4817324E0,4.686425E0,3.4985123E0,3.5265808E0,8.991203E0,7.739118E0,1.9960024E1,5.573577E0,7.4419527E0,0E0,0E0,0E0,0E0,0E0,0E0,0E0,0E0,0E0,0E0,0E0,0E0,0E0,0E0,0E0,0E0,0E0,0E0,0E0,0E0,0E0,0E0,0E0,0E0,0E0,0E0,0E0,0E0],"parents":[2147483647,0,0,2,2,3,3,4,4,5,5,6,6,7,7,8,8,9,9,10,10,11,11,12,12,13,13,14,14,15,15,16,16,17,17,19,19,20,20,22,22,23,23,24,24,25,25,26,26,27,27,28,28,29,29,30,30,31,31,32,32],"right_children":[2,-1,4,6,8,10,12,14,16,18,20,22,24,26,28,30,32,34,-1,36,38,-1,40,42,44,46,48,50,52,54,56,58,60,-1,-1,-1,-1,-1,-1,-1,-1,-1,-1,-1,-1,-1,-1,-1,-1,-1,-1,-1,-1,-1,-1,-1,-1,-1,-1,-1,-1],"split_conditions":[4.62E2,-2.4447653E-1,5.18E2,4.98E2,5.34E2,1.0102E4,5.06E2,2.6842E4,5.62E2,6.536E3,1.2438E4,1.0996E4,3.441E4,2.413E4,3.76E4,2.0314E4,1.735E4,4.88E3,-2.8533167E-1,4.82E2,2.0832E4,-3.1465054E-1,1.654E4,1.9224E4,3.9648E4,1.7736E4,2.5238E4,5.26E2,3.892E4,1.6392E4,2.9744E4,1.7226E4,2.5012E4,-1.0177438E-1,1.3948005E-1,1.2694223E-1,4.090233E-1,-1.2988025E-1,5.6796752E-2,8.9247905E-2,-1.5385471E-1,-1.1918844E-1,1.8223241E-1,-2.8038144E-1,-5.9311323E-2,-2.1471446E-2,1.205736E-1,-3.8605648E-1,-7.159425E-2,2.3784232E-1,6.024479E-2,-2.7166283E-1,5.6122065E-2,-3.1590734E-2,-1.9934833E-1,1.2937894E-1,-4.028559E-2,1.6783394E-2,2.652411E-1,-3.995906E-2,1.4114521E-3],"split_indices":[0,0,0,0,0,1,0,1,0,1,1,1,1,1,1,1,1,1,0,0,1,0,1,1,1,1,1,0,1,1,1,1,1,0,0,0,0,0,0,0,0,0,0,0,0,0,0,0,0,0,0,0,0,0,0,0,0,0,0,0,0],"split_type":[0,0,0,0,0,0,0,0,0,0,0,0,0,0,0,0,0,0,0,0,0,0,0,0,0,0,0,0,0,0,0,0,0,0,0,0,0,0,0,0,0,0,0,0,0,0,0,0,0,0,0,0,0,0,0,0,0,0,0,0,0],"sum_hessian":[6.5078027E3,4.392953E0,6.5034097E3,1.6380281E2,6.339607E3,6.9656815E1,9.414599E1,2.750218E2,6.0645854E3,8.930203E0,6.072661E1,2.507796E1,6.906803E1,1.1559965E2,1.5942215E2,5.41823E2,5.522762E3,5.697888E0,3.232316E0,3.331621E0,5.739499E1,4.808248E0,2.026971E1,2.8648895E1,4.041914E1,1.0231424E2,1.3285404E1,4.124292E1,1.1817923E2,1.4179692E2,4.0002606E2,9.210894E2,4.601673E3,3.2360468E0,2.461841E0,1.5897346E0,1.7418865E0,9.173032E0,4.8221954E1,1.4126136E0,1.8857096E1,1.4479012E1,1.4169884E1,4.424695E0,3.5994446E1,7.435372E1,2.7960514E1,4.6744943E0,8.61091E0,1.8425861E1,2.2817059E1,7.0865293E0,1.110927E2,1.10722534E2,3.107439E1,7.625174E1,3.2377432E2,9.138847E2,7.2046776E0,4.3084702E2,4.1708257E3],"tree_param":{"num_deleted":"0","num_feature":"2","num_nodes":"61","size_leaf_vector":"0"}},{"base_weights":[-2.0840454E-3,-7.7507645E-1,-1.5553994E-3,-6.976856E-2,2.8031042E-3,-2.0865057E-2,-3.6796367E-1,1.2264855E-1,-3.8213923E-3,-5.542854E-2,1.6837165E0,-8.214364E-1,-3.0252463E-1,1.6331732E-1,-4.055426E-1,-8.25128E-1,-2.736027E-3,-7.676265E-2,4.1658577E-1,-2.9421654E-1,-1.068641E0,1.3067136E0,-3.6326927E-1,1.0795764E-1,4.8686278E-1,-9.805397E-1,1.2306687E-1,-1.4511304E0,3.934239E-2,-1.2707259E-2,7.096239E-2,-2.6507737E-2,-3.6327034E-1,-1.8487097E-1,1.0434834E0,-6.588221E-1,2.3732004E-1,-4.25027E-1,1.5256189E-2,1.6450855E-1,-3.9472657E-1,1.1517601E0,3.334865E-1,-1.2495389E0,-4.5510593E-1,-9.682794E-1,3.8312212E-1,4.1000792E-1,-4.8494744E-1,-7.816255E-3,-3.6269882E-1,3.900454E-1,1.3456705E-2],"categories":[],"categories_nodes":[],"categories_segments":[],"categories_sizes":[],"default_left":[true,false,true,true,true,true,true,true,true,true,false,true,true,true,true,true,true,true,true,true,false,false,true,true,true,true,true,false,true,true,true,false,false,false,false,false,false,false,false,false,false,false,false,false,false,false,false,false,false,false,false,false,false],"id":25,"left_children":[1,-1,3,5,7,9,11,13,15,17,-1,19,21,23,25,27,29,31,33,35,-1,-1,37,39,41,43,45,-1,47,49,51,-1,-1,-1,-1,-1,-1,-1,-1,-1,-1,-1,-1,-1,-1,-1,-1,-1,-1,-1,-1,-1,-1],"loss_changes":[2.6552806E0,0E0,1.9319104E0,5.6833577E0,4.849794E0,1.990881E1,1.3813572E0,6.939536E0,5.1582823E0,3.361291E0,0E0,5.1232815E-1,5.32133E0,5.281636E0,7.160894E0,4.1899242E0,4.2502527E0,4.557034E0,5.642296E0,8.162043E-1,0E0,0E0,1.1416583E0,7.330488E0,4.0241184E0,1.0151949E0,4.048168E0,0E0,1.0113823E0,8.717511E0,1.2642309E1,0E0,0E0,0E0,0E0,0E0,0E0,0E0,0E0,0E0,0E0,0E0,0E0,0E0,0E0,0E0,0E0,0E0,0E0,0E0,0E0,0E0,0E0],"parents":[2147483647,0,0,2,2,3,3,4,4,5,5,6,6,7,7,8,8,9,9,11,11,12,12,13,13,14,14,15,15,16,16,17,17,18,18,19,19,22,22,23,23,24,24,25,25,26,26,28,28,29,29,30,30],"right_children":[2,-1,4,6,8,10,12,14,16,18,-1,20,22,24,26,28,30,32,34,36,-1,-1,38,40,42,44,46,-1,48,50,52,-1,-1,-1,-1,-1,-1,-1,-1,-1,-1,-1,-1,-1,-1,-1,-1,-1,-1,-1,-1,-1,-1],"split_conditions":[4.62E2,-2.3252295E-1,7.566E3,7.3E2,1.1522E4,7.18E2,7.5E2,8.18E2,1.159E4,6.82E2,5.05115E-1,5.282E3,7.54E2,6.9E2,8.7E2,5.82E2,8.1E2,6.5E2,5.206E3,3.784E3,-3.2059228E-1,3.920141E-1,6.886E3,6.58E2,7.02E2,9.816E3,8.054E3,-4.3533912E-1,6.38E2,7.98E2,3.2686E4,-7.952321E-3,-1.0898111E-1,-5.5461295E-2,3.1304502E-1,-1.9764665E-1,7.119601E-2,-1.275081E-1,4.5768567E-3,4.9352568E-2,-1.1841798E-1,3.4552804E-1,1.0004596E-1,-3.748617E-1,-1.3653179E-1,-2.9048383E-1,1.1493664E-1,1.2300238E-1,-1.4548424E-1,-2.3448765E-3,-1.0880965E-1,1.17013626E-1,4.037012E-3],"split_indices":[0,0,1,0,1,0,0,0,1,0,0,1,0,0,0,0,0,0,1,1,0,0,1,0,0,1,1,0,0,0,1,0,0,0,0,0,0,0,0,0,0,0,0,0,0,0,0,0,0,0,0,0,0],"split_type":[0,0,0,0,0,0,0,0,0,0,0,0,0,0,0,0,0,0,0,0,0,0,0,0,0,0,0,0,0,0,0,0,0,0,0,0,0,0,0,0,0,0,0,0,0,0,0,0,0,0,0,0,0],"sum_hessian":[6.499808E3,3.440824E0,6.496367E3,3.8925702E2,6.1071104E3,3.3533295E2,5.3924076E1,3.1897308E2,5.788137E3,3.2961685E2,5.7160964E0,5.3433795E0,4.8580696E1,2.9681055E2,2.2162518E1,6.6369824E0,5.7815E3,3.1616425E2,1.3452621E1,2.4047909E0,2.9385889E0,1.0209969E0,4.75597E1,2.5458406E2,4.2226494E1,1.020598E1,1.1956538E1,3.4558263E0,3.1811564E0,5.0932256E3,6.882745E2,2.699127E2,4.6251537E1,7.225474E0,6.2271476E0,1.2843373E0,1.1204536E0,4.0782967E1,6.776732E0,2.2944475E2,2.5139309E1,6.6947765E0,3.5531715E1,5.838708E0,4.3672724E0,1.7767746E0,1.0179763E1,1.9913058E0,1.1898506E0,5.024039E3,6.918677E1,1.0421756E2,5.8405695E2],"tree_param":{"num_deleted":"0","num_feature":"2","num_nodes":"53","size_leaf_vector":"0"}},{"base_weights":[-1.8525062E-3,-5.1855373E-1,-1.2380582E-3,-1.7052752E-1,-7.68805E-1,1.3433516E-3,-1.0615369E-1,-3.1745544E-1,-6.16116E-3,-2.393771E-3,3.9155918E-1,-1.9574764E-1,2.7158678E-1,2.790258E-1,-2.9747188E-1,8.9352636E-4,-1.2176304E-1,7.4423367E-1,-2.2653367E-2,-1.3571787E-1,-8.770081E-1,1.1343762E0,-1.465803E-1,-4.522026E-3,8.6345226E-2,-6.4083374E-1,-5.1152002E-2,-3.3721054E-1,9.0142053E-1,-6.5347695E-1,2.8819785E-1,-1.9636475E-1,6.8707466E-1,1.5372173E0,2.49935E-1,-7.905932E-1,4.553423E-1,-1.2403451E-3,-2.6751053E-1,-6.2239176E-1,1.3590148E-1,-7.907625E-1,7.1097344E-2,3.0142945E-1,-1.6157813E-1,1.0372809E0,-1.0424073E0,1.3956513E0,4.6748438E-1,-1.165438E-2,-8.7657726E-1,1.4210898E0,1.26586E-1,2.2816306E-1,-2.727817E-1,1.7859919E0,2.7060264E-1,1.8030558E0,5.999642E-1,-4.6082997E-1,1.0478922E0,3.0607092E0,-1.9813861E-1],"categories":[],"categories_nodes":[],"categories_segments":[],"categories_sizes":[],"default_left":[true,true,true,true,false,true,true,false,true,true,true,true,true,false,false,true,true,true,true,true,false,true,true,true,true,true,true,true,true,true,true,true,true,true,true,false,true,false,false,false,false,false,false,false,false,false,false,false,false,false,false,false,false,false,false,false,false,false,false,false,false,false,false],"id":26,"left_children":[1,3,5,7,-1,9,11,-1,13,15,17,19,21,-1,-1,23,25,27,29,31,-1,33,35,37,39,41,43,45,47,49,51,53,55,57,59,-1,61,-1,-1,-1,-1,-1,-1,-1,-1,-1,-1,-1,-1,-1,-1,-1,-1,-1,-1,-1,-1,-1,-1,-1,-1,-1,-1],"loss_changes":[2.060479E0,5.4026747E-1,1.756557E0,1.0694657E-1,0E0,9.232676E0,5.324215E0,0E0,3.4454805E-1,2.4610553E0,8.790412E0,5.0531235E0,1.109025E1,0E0,0E0,2.8253126E0,6.1280155E0,5.82329E0,5.794664E0,5.9937754E0,0E0,3.1781988E0,8.608821E0,4.9548697E0,1.28643055E1,2.195364E0,5.8517494E0,5.780525E0,5.4856567E0,1.3850117E0,3.4537714E0,3.6349802E0,3.3073318E0,5.8148766E-1,2.9348006E0,0E0,2.0413338E1,0E0,0E0,0E0,0E0,0E0,0E0,0E0,0E0,0E0,0E0,0E0,0E0,0E0,0E0,0E0,0E0,0E0,0E0,0E0,0E0,0E0,0E0,0E0,0E0,0E0,0E0],"parents":[2147483647,0,0,1,1,2,2,3,3,5,5,6,6,8,8,9,9,10,10,11,11,12,12,15,15,16,16,17,17,18,18,19,19,21,21,22,22,23,23,24,24,25,25,26,26,27,27,28,28,29,29,30,30,31,31,32,32,33,33,34,34,36,36],"right_children":[2,4,6,8,-1,10,12,-1,14,16,18,20,22,-1,-1,24,26,28,30,32,-1,34,36,38,40,42,44,46,48,50,52,54,56,58,60,-1,62,-1,-1,-1,-1,-1,-1,-1,-1,-1,-1,-1,-1,-1,-1,-1,-1,-1,-1,-1,-1,-1,-1,-1,-1,-1,-1],"split_conditions":[4.7E2,7.4726E4,9.18E2,3.0522E4,-2.3064151E-1,9.06E2,2.947315E5,-9.523664E-2,4.66E2,8.74E2,8.7406E4,2.2254E5,3.39986E5,8.370774E-2,-8.9241564E-2,8.1E2,8.78E2,1.0248E4,1.45598E5,1.88536E5,-2.6310244E-1,9.46E2,6.444535E5,7.98E2,1.2278E4,2.14086E5,3.261E4,9.1E2,3.6346E4,1.0553E5,1.50558E5,1.9998E4,1.9703E5,3.1817E5,3.13868E5,-2.3717797E-1,6.533875E5,-3.7210353E-4,-8.025316E-2,-1.8671754E-1,4.0770445E-2,-2.3722875E-1,2.1329204E-2,9.042884E-2,-4.8473444E-2,3.111843E-1,-3.127222E-1,4.1869542E-1,1.4024532E-1,-3.4963142E-3,-2.629732E-1,4.2632696E-1,3.7975803E-2,6.844892E-2,-8.183451E-2,5.357976E-1,8.1180796E-2,5.4091674E-1,1.7998926E-1,-1.38249E-1,3.1436768E-1,9.1821283E-1,-5.9441585E-2],"split_indices":[0,1,0,1,0,0,1,0,0,0,1,1,1,0,0,0,0,1,1,1,0,0,1,0,1,1,1,0,1,1,1,1,1,1,1,0,1,0,0,0,0,0,0,0,0,0,0,0,0,0,0,0,0,0,0,0,0,0,0,0,0,0,0],"split_type":[0,0,0,0,0,0,0,0,0,0,0,0,0,0,0,0,0,0,0,0,0,0,0,0,0,0,0,0,0,0,0,0,0,0,0,0,0,0,0,0,0,0,0,0,0,0,0,0,0,0,0,0,0,0,0,0,0,0,0,0,0,0,0],"sum_hessian":[6.491005E3,6.7085643E0,6.4842964E3,3.5094178E0,3.1991465E0,6.3295474E3,1.5474895E2,1.3612238E0,2.148194E0,6.2704883E3,5.9059013E1,1.2547103E2,2.9277918E1,1.106816E0,1.041378E0,6.1034E3,1.6708836E2,3.1468735E1,2.7590279E1,1.16412476E2,9.0585575E0,8.998629E0,2.027929E1,5.740537E3,3.6286288E2,1.9040882E1,1.4804749E2,3.8481581E0,2.7620575E1,8.743833E0,1.8846447E1,1.0913E2,7.282475E0,5.6755085E0,3.3231196E0,9.645677E0,1.0633612E1,5.67078E3,6.975765E1,2.2958523E1,3.3990436E2,1.5637073E1,3.40381E0,3.489642E1,1.1315106E2,1.1451834E0,2.7029746E0,1.1877013E1,1.5743563E1,2.5268228E0,6.2170095E0,1.3799353E0,1.746651E1,1.634439E1,9.278561E1,1.0976896E0,6.1847854E0,3.701784E0,1.9737246E0,1.9810369E0,1.3420827E0,1.3936318E0,9.23998E0],"tree_param":{"num_deleted":"0","num_feature":"2","num_nodes":"63","size_leaf_vector":"0"}},{"base_weights":[-1.5277391E-3,2.3998355E-3,-6.5712936E-2,-2.410836E-4,5.5031973E-1,-5.509831E-1,-2.9755313E-2,1.5317708E-3,-5.463029E-1,1.4836241E-1,9.831553E-1,-8.264101E-1,4.1881163E-2,2.563424E-1,-6.486019E-2,-1.2279183E-3,1.5102684E-1,-9.693464E-1,2.9384106E-1,8.0475855E-1,-5.958991E-1,3.6439173E0,4.6384633E-1,-3.1558892E-1,-9.550985E-1,5.458937E-1,-5.990183E-1,2.697456E0,-7.0346706E-2,-4.9208295E-1,-6.262751E-3,3.4894228E-3,-2.1239258E-1,-2.573879E-1,4.1138968E-1,-8.158859E-1,1.4427094E0,-6.470879E-1,1.1950489E0,-1.6594763E-1,-7.3056E-1,7.8477174E-1,-5.391049E-1,4.2126006E-1,-7.7040595E-1,9.985639E-1,-5.842157E-1,-7.147626E-1,-2.0287785E-1,-6.1778766E-1,4.469007E0,-3.6461502E-1,7.401533E-1,-9.52718E-1,2.3811002E-1,1.0677832E0,-3.8421538E-2,-9.713352E-3,3.9659508E-2,-7.1196556E-1,-5.937603E-2,7.352361E-1,-6.4519244E-1,1.2457688E0,-3.816291E-2,2.0003777E0,-6.693395E-2,4.2014974E-1,2.3184536E0,-5.7183474E-1,2.7064058E-1,1.3153701E0,-1.8310224E-1,-6.989577E-1,-6.415479E-2,-1.6093117E-1,2.4412405E0,2.1949616E-1,-9.079285E-1,2.0266721E0,2.964964E-1,-3.3067495E-2,-9.936044E-1,-5.883613E-1,8.1320477E-1,2.3527985E0,-2.3391454E-1,-6.405805E-1,-1.5378639E-2],"categories":[],"categories_nodes":[],"categories_segments":[],"categories_sizes":[],"default_left":[true,true,true,true,true,true,true,true,true,true,true,true,true,true,true,true,true,false,true,true,true,false,true,true,false,true,true,true,true,true,true,true,true,true,true,false,true,false,true,true,false,true,true,false,false,true,false,false,false,false,false,true,true,true,true,true,true,false,false,false,false,false,false,false,false,false,false,false,false,false,false,false,false,false,false,false,false,false,false,false,false,false,false,false,false,false,false,false,false],"id":27,"left_children":[1,3,5,7,9,11,13,15,17,19,21,23,25,27,29,31,33,-1,35,37,39,-1,41,43,-1,45,47,49,51,53,55,57,59,61,63,-1,65,-1,67,69,-1,71,73,-1,-1,75,-1,-1,-1,-1,-1,77,79,81,83,85,87,-1,-1,-1,-1,-1,-1,-1,-1,-1,-1,-1,-1,-1,-1,-1,-1,-1,-1,-1,-1,-1,-1,-1,-1,-1,-1,-1,-1,-1,-1,-1,-1],"loss_changes":[1.6352772E0,8.845935E0,6.510424E0,5.8914843E0,4.955947E0,4.2388797E0,3.524801E0,2.5028284E0,7.2844167E0,8.482656E0,1.7574081E1,8.5740185E-1,3.2726E0,3.07954E1,7.805646E0,5.9348936E0,1.1798549E1,0E0,1.0564302E1,5.9468946E0,3.565204E-1,0E0,4.5465884E0,2.013874E0,0E0,3.4623637E0,6.0912848E-2,2.9514206E1,8.575189E0,1.2877015E1,9.550343E0,2.7835126E0,9.909771E0,1.7190052E1,2.5380077E1,0E0,3.4836502E0,0E0,5.595868E0,7.327994E-1,0E0,5.434232E0,2.3594475E-1,0E0,0E0,7.731947E0,0E0,0E0,0E0,0E0,0E0,8.519415E0,4.8816147E0,8.418083E-1,7.773472E0,1.3996253E1,3.7125893E0,0E0,0E0,0E0,0E0,0E0,0E0,0E0,0E0,0E0,0E0,0E0,0E0,0E0,0E0,0E0,0E0,0E0,0E0,0E0,0E0,0E0,0E0,0E0,0E0,0E0,0E0,0E0,0E0,0E0,0E0,0E0,0E0],"parents":[2147483647,0,0,1,1,2,2,3,3,4,4,5,5,6,6,7,7,8,8,9,9,10,10,11,11,12,12,13,13,14,14,15,15,16,16,18,18,19,19,20,20,22,22,23,23,25,25,26,26,27,27,28,28,29,29,30,30,31,31,32,32,33,33,34,34,36,36,38,38,39,39,41,41,42,42,45,45,51,51,52,52,53,53,54,54,55,55,56,56],"right_children":[2,4,6,8,10,12,14,16,18,20,22,24,26,28,30,32,34,-1,36,38,40,-1,42,44,-1,46,48,50,52,54,56,58,60,62,64,-1,66,-1,68,70,-1,72,74,-1,-1,76,-1,-1,-1,-1,-1,78,80,82,84,86,88,-1,-1,-1,-1,-1,-1,-1,-1,-1,-1,-1,-1,-1,-1,-1,-1,-1,-1,-1,-1,-1,-1,-1,-1,-1,-1,-1,-1,-1,-1,-1,-1],"split_conditions":[2.52954E5,2.42944E5,2.7289E5,2.31678E5,7.02E2,8.06E2,3.00244E5,1.98254E5,8.18E2,5.82E2,7.18E2,2.54722E5,8.78E2,5.58E2,3.29198E5,1.72918E5,6.5E2,-2.9080394E-1,2.38588E5,2.47168E5,6.3E2,1.0931753E0,8.9E2,5.86E2,-2.8652957E-1,2.6665E5,2.6383E5,2.859E5,2.94314E5,8.42E2,3.37076E5,7.261E4,1.79648E5,2.0332E5,7.18E2,-2.4476577E-1,8.88E2,-1.9412637E-1,5.74E2,2.4957E5,-2.19168E-1,2.49482E5,9.26E2,1.2637803E-1,-2.311218E-1,2.61178E5,-1.7526472E-1,-2.144288E-1,-6.0863357E-2,-1.853363E-1,1.3407022E0,7.34E2,6.1E2,3.01556E5,3.10344E5,6.96E2,3.47048E5,-2.9140057E-3,1.1897853E-2,-2.1358968E-1,-1.781281E-2,2.2057085E-1,-1.9355774E-1,3.7373066E-1,-1.1448873E-2,6.0011333E-1,-2.0080186E-2,1.2604493E-1,6.955361E-1,-1.7155042E-1,8.119218E-2,3.9461103E-1,-5.4930672E-2,-2.0968731E-1,-1.9246437E-2,-4.8279352E-2,7.3237216E-1,6.584885E-2,-2.7237856E-1,6.0800165E-1,8.894892E-2,-9.920249E-3,-2.9808134E-1,-1.765084E-1,2.4396144E-1,7.058396E-1,-7.0174366E-2,-1.9217415E-1,-4.613592E-3],"split_indices":[1,1,1,1,0,0,1,1,0,0,0,1,0,0,1,1,0,0,1,1,0,0,0,0,0,1,1,1,1,0,1,1,1,1,0,0,0,0,0,1,0,1,0,0,0,1,0,0,0,0,0,0,0,1,1,0,1,0,0,0,0,0,0,0,0,0,0,0,0,0,0,0,0,0,0,0,0,0,0,0,0,0,0,0,0,0,0,0,0],"split_type":[0,0,0,0,0,0,0,0,0,0,0,0,0,0,0,0,0,0,0,0,0,0,0,0,0,0,0,0,0,0,0,0,0,0,0,0,0,0,0,0,0,0,0,0,0,0,0,0,0,0,0,0,0,0,0,0,0,0,0,0,0,0,0,0,0,0,0,0,0,0,0,0,0,0,0,0,0,0,0,0,0,0,0,0,0,0,0,0,0],"sum_hessian":[6.4851978E3,6.11215E3,3.730477E2,6.083826E3,2.8323874E1,2.4747112E1,3.4830057E2,6.0651323E3,1.8693975E1,1.5381992E1,1.294188E1,1.6628214E1,8.1189E0,3.737769E1,3.1092288E2,5.956173E3,1.0895956E2,1.233105E1,6.3629255E0,8.130272E0,7.2517204E0,1.1308637E0,1.1811017E1,4.040807E0,1.2587406E1,4.627783E0,3.491117E0,3.5552094E0,3.382248E1,3.660984E1,2.7431305E2,5.8269834E3,1.291892E2,4.2423664E1,6.65359E1,3.3840263E0,2.9788992E0,1.5831451E0,6.5471272E0,2.261962E0,4.989758E0,9.112672E0,2.6983452E0,1.5703936E0,2.4704132E0,3.3873615E0,1.2404213E0,2.0792773E0,1.4118398E0,1.4649694E0,2.09024E0,2.5217056E1,8.605423E0,2.2261587E1,1.4348252E1,7.0384345E0,2.6727463E2,4.2693286E3,1.5576552E3,2.943525E1,9.9753944E1,1.1666419E1,3.0757244E1,2.267657E1,4.3859325E1,1.9379474E0,1.0409518E0,4.6876726E0,1.8594545E0,1.011661E0,1.250301E0,5.6540394E0,3.458632E0,1.665984E0,1.032361E0,2.3705633E0,1.0167981E0,1.2439487E1,1.277757E1,1.2916839E0,7.3137393E0,1.0245833E0,2.1237003E1,5.8779516E0,8.470301E0,3.135568E0,3.9028664E0,8.863129E0,2.584115E2],"tree_param":{"num_deleted":"0","num_feature":"2","num_nodes":"89","size_leaf_vector":"0"}},{"base_weights":[-2.2397968E-3,1.0529198E-2,-2.498812E-2,1.5800517E-2,-3.6028832E-1,-2.2412895E-1,1.6056512E-2,1.0879588E-2,1.4381241E0,-7.546671E-1,-3.7560083E-2,-4.5149124E-1,-1.3812423E-1,4.5296645E-1,-1.5561359E-2,-1.5419809E-2,7.760401E-2,2.3605244E0,6.403769E-1,-8.741133E-1,-2.896395E-1,2.9398658E0,-2.2259124E-1,-5.959779E-1,-2.118035E-1,4.9090946E-1,-2.0273776E-1,5.144568E-1,-4.6289942E-1,-8.166667E-2,1.5596859E-2,-1.039679E-2,-6.3257706E-1,6.969736E-2,3.500806E0,3.8008778E0,-1.045628E-1,-8.3809644E-1,2.0886981E0,4.9912345E-1,-7.981573E-1,-4.3140632E-1,3.7385416E-1,-4.578533E-1,-8.5301334E-1,-1.3722172E-1,-5.306895E-1,-9.871448E-2,7.8120893E-1,-7.1790975E-1,-1.397097E-1,4.698354E-1,2.3964643E0,-1.6573343E-1,-6.3857055E-1,4.8958007E-1,-1.1304259E-1,-2.409018E-1,3.0856049E-2,-1.5034844E-2,1.1760228E0,-9.3376255E-1,1.20204404E-1,2.52357E-1,-2.3027773E-3,3.774494E-2,6.972439E0,-5.754877E-1,4.7362065E-1,8.307426E-1,3.3794956E0,-5.388657E-1,1.2569224E0,1.1539226E-1,-9.399323E-1,5.9454924E-1,1.9276133E-2,1.9201118E-1,-4.943501E-1,-1.0456055E0,-2.7449283E-1,-2.3343253E-1,8.8622063E-1,-9.7147596E-1,-1.3191526E-1,3.596567E-1,-5.470115E-1,9.536268E-1,2.449361E-1,-3.544962E-1,-8.7959754E-1,-5.0405722E-2,-3.2737172E-1,5.281024E-1,-9.972877E-3,-7.102178E-1,5.881268E-1,-6.1437298E-2,-7.763783E-1,3.2466927E-1,1.4735814E0,-1.4894329E-1,2.9187804E-1,1.9906715E-1,-3.2327998E-1,2.6966482E-1,1.2074738E-2],"categories":[],"categories_nodes":[],"categories_segments":[],"categories_sizes":[],"default_left":[true,true,true,true,true,true,true,true,true,true,true,true,true,true,true,true,true,true,true,false,true,false,true,true,true,true,true,true,true,true,true,true,true,true,false,true,true,false,true,true,false,true,true,true,true,true,true,true,true,true,true,true,false,true,true,true,true,true,true,false,false,false,false,false,false,false,false,false,false,false,false,false,false,false,false,false,false,false,false,false,false,false,false,false,false,false,false,false,false,false,false,false,false,false,false,false,false,false,false,false,false,false,false,false,false,false,false],"id":28,"left_children":[1,3,5,7,9,11,13,15,17,19,21,23,25,27,29,31,33,35,37,-1,39,-1,41,43,45,47,49,51,53,55,57,59,61,63,-1,65,67,-1,69,71,-1,73,75,77,79,81,83,85,87,89,91,93,-1,95,97,99,101,103,105,-1,-1,-1,-1,-1,-1,-1,-1,-1,-1,-1,-1,-1,-1,-1,-1,-1,-1,-1,-1,-1,-1,-1,-1,-1,-1,-1,-1,-1,-1,-1,-1,-1,-1,-1,-1,-1,-1,-1,-1,-1,-1,-1,-1,-1,-1,-1,-1],"loss_changes":[1.8846627E0,8.12893E0,1.9069414E1,2.8670116E1,7.3905993E0,7.7334595E0,2.673627E1,7.1702003E0,8.880873E0,1.2010336E0,1.8894823E1,3.6478462E0,1.1914741E1,7.5935764E0,3.719706E0,9.080058E0,3.1021662E1,2.2331673E1,2.0905886E1,0E0,3.1442807E0,0E0,4.159446E0,2.003769E0,9.388486E-1,4.7621512E0,8.482521E0,9.19194E0,3.506124E-1,1.0423801E1,4.81307E0,1.60224E1,5.473754E0,1.5171101E1,0E0,4.659421E1,1.157905E0,0E0,4.995121E0,3.2720833E0,0E0,6.849096E0,6.8187785E-1,1.1865578E0,2.2103748E0,3.7342482E0,1.227808E0,2.2347348E0,1.4726553E0,1.3670702E0,3.9512873E0,3.3954048E0,0E0,2.305415E0,3.6146927E-1,4.4395485E0,8.026875E0,2.5671916E0,5.198448E0,0E0,0E0,0E0,0E0,0E0,0E0,0E0,0E0,0E0,0E0,0E0,0E0,0E0,0E0,0E0,0E0,0E0,0E0,0E0,0E0,0E0,0E0,0E0,0E0,0E0,0E0,0E0,0E0,0E0,0E0,0E0,0E0,0E0,0E0,0E0,0E0,0E0,0E0,0E0,0E0,0E0,0E0,0E0,0E0,0E0,0E0,0E0,0E0],"parents":[2147483647,0,0,1,1,2,2,3,3,4,4,5,5,6,6,7,7,8,8,9,9,10,10,11,11,12,12,13,13,14,14,15,15,16,16,17,17,18,18,20,20,22,22,23,23,24,24,25,25,26,26,27,27,28,28,29,29,30,30,31,31,32,32,33,33,35,35,36,36,38,38,39,39,41,41,42,42,43,43,44,44,45,45,46,46,47,47,48,48,49,49,50,50,51,51,53,53,54,54,55,55,56,56,57,57,58,58],"right_children":[2,4,6,8,10,12,14,16,18,20,22,24,26,28,30,32,34,36,38,-1,40,-1,42,44,46,48,50,52,54,56,58,60,62,64,-1,66,68,-1,70,72,-1,74,76,78,80,82,84,86,88,90,92,94,-1,96,98,100,102,104,106,-1,-1,-1,-1,-1,-1,-1,-1,-1,-1,-1,-1,-1,-1,-1,-1,-1,-1,-1,-1,-1,-1,-1,-1,-1,-1,-1,-1,-1,-1,-1,-1,-1,-1,-1,-1,-1,-1,-1,-1,-1,-1,-1,-1,-1,-1,-1,-1],"split_conditions":[6.58E2,4.24068E5,6.82E2,3.73484E5,6.63442E5,2.8844E4,6.94E2,6.26E2,3.88244E5,6.1E2,6.667975E5,6.7E2,3.6938E4,2.31296E5,7.54E2,2.98576E5,3.29138E5,5.94E2,4.073435E5,-2.62234E-1,6.22E2,8.819598E-1,1.79575E6,1.8776E4,2.539E4,3.1904E4,4.4396E4,2.2409E5,6.86E2,9.504E3,9.846E3,2.859E5,3.51862E5,2.409E4,1.0502418E0,5.74E2,6.18E2,-2.5142893E-1,6.1E2,5.044E5,-2.3944719E-1,7.22312E5,1.849728E6,3.254E3,2.595E4,2.4292E4,2.641E4,3.0222E4,3.5572E4,3.9736E4,1.17022E5,1.25585E5,7.189393E-1,4.33634E5,3.39706E5,9.058E3,4.23836E5,7.7E2,1.814E4,-4.5104534E-3,3.5280684E-1,-2.8012878E-1,3.6061324E-2,7.570711E-2,-6.908332E-4,1.1323482E-2,2.0917318E0,-1.7264631E-1,1.4208621E-1,2.4922279E-1,1.0138488E0,-1.6165972E-1,3.7707672E-1,3.461768E-2,-2.819797E-1,1.7836478E-1,5.78284E-3,5.7603355E-2,-1.4830504E-1,-3.1368166E-1,-8.2347855E-2,-7.0029765E-2,2.658662E-1,-2.914428E-1,-3.957458E-2,1.0789701E-1,-1.6410345E-1,2.8608805E-1,7.348083E-2,-1.06348865E-1,-2.6387927E-1,-1.5121717E-2,-9.821152E-2,1.5843073E-1,-2.9918633E-3,-2.1306534E-1,1.7643803E-1,-1.843119E-2,-2.329135E-1,9.7400784E-2,4.4207445E-1,-4.4682987E-2,8.756342E-2,5.9720147E-2,-9.6984E-2,8.089945E-2,3.6224215E-3],"split_indices":[0,1,0,1,1,1,0,0,1,0,1,0,1,1,0,1,1,0,1,0,0,0,1,1,1,1,1,1,0,1,1,1,1,1,0,0,0,0,0,1,0,1,1,1,1,1,1,1,1,1,1,1,0,1,1,1,1,0,1,0,0,0,0,0,0,0,0,0,0,0,0,0,0,0,0,0,0,0,0,0,0,0,0,0,0,0,0,0,0,0,0,0,0,0,0,0,0,0,0,0,0,0,0,0,0,0,0],"split_type":[0,0,0,0,0,0,0,0,0,0,0,0,0,0,0,0,0,0,0,0,0,0,0,0,0,0,0,0,0,0,0,0,0,0,0,0,0,0,0,0,0,0,0,0,0,0,0,0,0,0,0,0,0,0,0,0,0,0,0,0,0,0,0,0,0,0,0,0,0,0,0,0,0,0,0,0,0,0,0,0,0,0,0,0,0,0,0,0,0,0,0,0,0,0,0,0,0,0,0,0,0,0,0,0,0,0,0],"sum_hessian":[6.4863438E3,4.1547524E3,2.3315913E3,4.097463E3,5.7289673E1,3.9767697E2,1.9339144E3,4.0843396E3,1.312327E1,2.518042E1,3.2109253E1,1.07977585E2,2.8969937E2,1.2960791E2,1.8043065E3,2.9301797E3,1.1541599E3,5.177622E0,7.945648E0,1.9334492E1,5.8459277E0,1.007564E0,3.110169E1,6.644017E1,4.153742E1,2.6371054E1,2.6332834E2,1.21864334E2,7.743573E0,5.774875E2,1.2268191E3,2.9075322E3,2.2647446E1,1.1525183E3,1.6416407E0,2.9260461E0,2.251576E0,4.140392E0,3.8052566E0,2.2987719E0,3.5471559E0,2.3241547E1,7.860144E0,4.5025715E1,2.1414452E1,3.4823204E1,6.7142143E0,8.917921E0,1.7453133E1,2.7572111E1,2.3575623E2,1.2026262E2,1.6017188E0,3.5989702E0,4.1446033E0,2.9306894E1,5.481806E2,6.805552E1,1.1587635E3,2.8971936E3,1.0338633E1,1.6003914E1,6.6435328E0,3.25144E2,8.273742E2,1.8010081E0,1.125038E0,1.2434556E0,1.0081202E0,2.759528E0,1.0457286E0,1.0919662E0,1.2068056E0,1.1571856E1,1.1669691E1,4.427572E0,3.4325721E0,2.1676357E0,4.285808E1,1.5460275E1,5.9541764E0,3.253646E1,